[[0.1697283536195755, 0.06909118592739105, -0.032491620630025864, -0.025464439764618874, 0.03580056130886078, -0.11928803473711014, -0.004114494659006596, -0.03830122947692871, -0.0961114689707756, -0.06820491701364517, 0.18895602226257324, -0.0981060042977333, 0.08000891655683517, 0.23969906568527222, -0.00483282282948494, 0.09339175373315811, -0.16628339886665344, 0.013604344800114632, -0.18563003838062286, -0.0801917016506195, -0.1024114266037941, -0.09574573487043381, -0.12605173885822296, 0.0840446725487709, -0.06337536871433258, -0.10868536680936813, 0.0601201169192791, -0.1292959749698639, -0.007458160165697336, -0.0454375185072422, 0.025090357288718224, -0.07911205291748047], [-0.09304701536893845, -0.05905517563223839, -0.04433425888419151, -0.09972628206014633, -0.16023428738117218, -0.09309419989585876, -0.039571553468704224, -0.030579011887311935, -0.06724629551172256, -0.13768738508224487, -0.03256708383560181, -0.024560268968343735, -0.006658134050667286, 0.07082969695329666, -0.05932619422674179, -0.01069344487041235, -0.13675615191459656, -0.05110876262187958, 0.09762579202651978, 0.10874036699533463, -0.14588181674480438, 0.02535649761557579, -0.007870222441852093, 0.012597833760082722, 0.03771538287401199, 0.06943172961473465, 0.027218887582421303, -0.07026238739490509, 0.030519383028149605, 0.05271848663687706, 0.04675476625561714, 0.03138390928506851], [-0.3720484972000122, -0.17930562794208527, -0.23282121121883392, -0.05968094989657402, -0.05099118873476982, -0.12587524950504303, -0.060694240033626556, -0.19258026778697968, -0.029240615665912628, -0.12367524951696396, -0.16834139823913574, 0.041263602674007416, 0.1390700489282608, 0.19423723220825195, 0.08210165053606033, -0.5080347061157227, -0.16936129331588745, -0.2636492848396301, -0.37689492106437683, 0.16838620603084564, 0.10949013382196426, -0.13798704743385315, -0.21876047551631927, -0.09045325219631195, -0.17559750378131866, -0.25288695096969604, 0.008802092634141445, -0.1600993275642395, 0.3079058825969696, 0.07316888123750687, -0.1715497374534607, -0.08326926082372665], [0.027916187420487404, -0.09085676074028015, 0.030823107808828354, -0.01780659891664982, -0.08481401950120926, -0.25880125164985657, 0.14302237331867218, 0.07636004686355591, -0.2435150295495987, -0.2818905711174011, -0.5912729501724243, 0.131265327334404, -0.004915233701467514, -0.023769456893205643, -0.011915404349565506, 0.1855371743440628, -0.1545451581478119, 0.043796438723802567, -0.13449931144714355, -0.429401159286499, -0.32985934615135193, -0.010888789780437946, -0.06141179800033569, -0.14091874659061432, 0.08191424608230591, 0.14730213582515717, -0.17672936618328094, 0.18053209781646729, -0.28139567375183105, -0.12980887293815613, -0.31629738211631775, -0.32932427525520325], [-0.048900406807661057, -0.029102889820933342, 0.11912980675697327, 0.13585978746414185, 0.05045032128691673, 0.13690350949764252, -0.06424485892057419, 0.019100239500403404, 0.06202642247080803, -0.05503327026963234, 0.08625383675098419, -0.026116810739040375, 0.0798267275094986, -0.055270809680223465, -0.07545438408851624, -0.033998534083366394, 0.10909593850374222, 0.08834865689277649, 0.04369126632809639, 0.12315838038921356, -0.007178709376603365, -0.23045361042022705, 0.12948736548423767, 0.0681018978357315, -0.16998301446437836, -0.0325998030602932, -0.1784004420042038, 0.1032237708568573, 0.05357056483626366, -0.01658843643963337, -0.08289661258459091, 0.010208544321358204], [-0.14543791115283966, -0.06588179618120193, 0.07564438134431839, 0.08692504465579987, -0.058682262897491455, -0.0013543781824409962, -0.1544160544872284, -0.07259690016508102, -0.06394622474908829, -0.011545850895345211, -0.04455490782856941, -0.005404250230640173, -0.2287582904100418, -0.2028181552886963, -0.25620394945144653, 0.13206246495246887, 0.1647614985704422, 0.13243471086025238, 0.021903837099671364, -0.26785293221473694, -0.1645974963903427, -0.14045630395412445, 0.06190904602408409, 0.1657237559556961, 0.011780711822211742, -0.1932382434606552, -0.24269849061965942, -0.08628319948911667, -0.19989782571792603, -0.11095874011516571, 0.2123546302318573, -0.0231649037450552], [0.009967098943889141, -0.1807820349931717, 0.05195124074816704, 0.049492016434669495, -0.07521224021911621, 0.02079334482550621, 0.02810794673860073, 0.055455319583415985, 0.014462508261203766, -0.188632994890213, -0.039340488612651825, -0.012790749780833721, 0.10919593274593353, -0.08414896577596664, 0.051013004034757614, -0.10919524729251862, 0.0919475108385086, 0.02530290000140667, 0.06745780259370804, -0.12328752130270004, 0.10978242009878159, -0.10830271244049072, -0.1294841468334198, -0.004694438073784113, -0.17834174633026123, -0.04446858912706375, -0.17544245719909668, -0.08803535997867584, -0.12779174745082855, 0.03351929038763046, -0.2067028284072876, 0.09341544657945633], [-0.24470116198062897, 0.023005986586213112, -0.11076968908309937, -0.040701840072870255, 0.01987886242568493, -0.03030453249812126, -0.15083323419094086, -0.1624384969472885, -0.13051281869411469, -0.20508421957492828, -0.49053484201431274, -0.12733396887779236, -0.11765114963054657, 0.07470136135816574, -0.09545216709375381, -0.2592070996761322, -0.19579146802425385, -0.01090315729379654, -0.003982911352068186, 0.18316592276096344, -0.00016275164671242237, 0.0213251281529665, -0.30204784870147705, -0.03989866003394127, -0.19216743111610413, -0.3440670967102051, -0.003314293920993805, 0.046892717480659485, -0.31058526039123535, 0.01829586550593376, -0.23819610476493835, -0.22736968100070953], [-0.15314950048923492, -0.06129692494869232, -0.3709923326969147, -0.19584958255290985, -0.22531001269817352, -0.2939232885837555, -0.36969777941703796, -0.7524595856666565, -0.1908896565437317, -0.4248194098472595, -0.4046819806098938, -0.23627564311027527, 0.22438661754131317, 0.21617957949638367, -0.2575979232788086, 0.00534427585080266, -0.34294408559799194, -0.37385404109954834, -0.15048526227474213, -0.25821468234062195, -0.16894260048866272, -0.2997731566429138, -0.5345869064331055, -0.29419398307800293, -0.1728316992521286, 0.162347212433815, -0.3085625171661377, -0.23283736407756805, 0.24666281044483185, -0.006797196343541145, -0.41353538632392883, -0.16406011581420898], [0.12259536981582642, 0.17077824473381042, -0.21136435866355896, -0.504430890083313, -0.30374711751937866, 0.21955448389053345, -0.4304976761341095, -0.5650285482406616, -0.4057300090789795, -0.3972378373146057, -0.15384235978126526, 0.25212857127189636, -0.9907478094100952, -0.4551239013671875, -0.4298710525035858, 0.2290375530719757, -0.030961889773607254, -0.41862136125564575, -0.11710166931152344, 0.09960243850946426, -0.021807434037327766, -0.6154196262359619, -0.3557617962360382, 0.12900906801223755, -0.384331613779068, -0.5157490968704224, -0.5538083910942078, -0.062402982264757156, -0.38280001282691956, -0.11676900833845139, 0.07490503787994385, -0.5968433022499084], [-0.030613157898187637, -0.28352445363998413, -0.008479504846036434, 0.08103182166814804, 0.22516924142837524, 0.0914408266544342, -0.15222640335559845, -0.1441928893327713, -0.008371200412511826, -0.140390545129776, 0.11152417957782745, 0.1424032747745514, -0.027727749198675156, -0.3424381911754608, -0.10794436186552048, 0.010439730249345303, -0.14478257298469543, -0.12304744124412537, 0.029222536832094193, -0.02487087994813919, 0.10967614501714706, -0.0042516374960541725, -0.13926219940185547, 0.045503146946430206, -0.091154083609581, -0.10950888693332672, -0.16341997683048248, -0.03699811175465584, -0.03800254687666893, 0.10224245488643646, -0.10251478850841522, -0.16851219534873962], [-0.2851000130176544, -0.16561682522296906, -0.1206926479935646, 0.11420198529958725, -0.14382004737854004, -0.031076177954673767, -0.1314258575439453, -0.07035922259092331, 0.11072450131177902, 0.07846800982952118, -0.23781445622444153, -0.25425228476524353, -0.061038196086883545, -0.35182812809944153, -0.0014814300229772925, -0.05283210799098015, -0.04608972370624542, 0.04005007818341255, 0.009191224351525307, -0.21611496806144714, -0.10152152925729752, -0.023064104840159416, -0.24269342422485352, 0.10544784367084503, -0.03305312618613243, -0.24209322035312653, -0.23416432738304138, 0.23658917844295502, -0.0039567300118505955, -0.03457877039909363, -0.18807712197303772, -0.15571366250514984], [-0.2689030170440674, -0.12949563562870026, 0.23450373113155365, -0.129829540848732, 0.19032590091228485, -0.2794276475906372, -0.20265421271324158, 0.0608687624335289, 0.22669832408428192, -0.054110560566186905, -0.37867864966392517, -0.25779226422309875, -0.23964180052280426, -0.08284936845302582, -0.10008935630321503, -0.3230116069316864, -0.16132694482803345, -0.07971043884754181, 0.13248097896575928, -0.3095990717411041, -0.06685393303632736, -0.11447551846504211, -0.2571055591106415, -0.06702312082052231, -0.2960209846496582, -0.40275999903678894, -0.060853175818920135, -0.10805768519639969, 0.00013191153993830085, -0.0606120228767395, 0.020643850788474083, -0.1999475359916687], [-0.04544311389327049, -0.1738094538450241, -0.3160591125488281, -0.1360308825969696, -0.012268663384020329, -0.09214519709348679, -0.0430804081261158, -0.09229718148708344, -0.0757979229092598, 0.14344818890094757, -0.23104780912399292, -0.02410857006907463, -0.12121456116437912, -0.13999533653259277, -0.156690314412117, 0.04273395612835884, -0.15870128571987152, -0.2470662146806717, 0.279260516166687, -0.27921974658966064, -0.44070470333099365, -0.013762260787189007, -0.12671226263046265, -0.11728189885616302, 0.08631034195423126, -0.36836978793144226, -0.2537815570831299, -0.09821256250143051, -0.22495250403881073, -0.17176373302936554, -0.2651921212673187, -0.17505939304828644], [-0.3033367693424225, -0.299431711435318, -0.008054298348724842, -0.19811919331550598, -0.07202663272619247, 0.08837459981441498, 0.05561075732111931, 0.12544479966163635, -0.025722304359078407, -0.018821479752659798, 0.09189140796661377, -0.12591217458248138, -0.15234534442424774, -0.36443567276000977, -0.08453838527202606, -0.01446500513702631, 0.062202561646699905, 0.16991785168647766, -0.3268684446811676, -0.1776994913816452, -0.23189209401607513, 0.13211534917354584, -0.1373215913772583, 0.05911828204989433, -0.1137968972325325, -0.4931336045265198, -0.11219722032546997, -0.11373215913772583, -0.3181716203689575, -0.4063822031021118, -0.2833082675933838, -0.20296001434326172], [0.13504813611507416, -0.052065230906009674, 0.016821786761283875, -0.03712015971541405, -0.029841715469956398, 0.060017820447683334, -0.12147273868322372, -0.005438266322016716, 0.01778183877468109, 0.2602686882019043, -0.1723594218492508, 0.21059289574623108, -0.12498653680086136, 0.023197829723358154, -0.17641586065292358, -0.09307762235403061, -0.16589723527431488, -0.09009693562984467, -0.07958859950304031, 0.033039722591638565, -0.05408831685781479, -0.08136162906885147, 0.004932551644742489, 0.0818246603012085, -0.364154189825058, -0.10847513377666473, -0.034215256571769714, -0.2843559682369232, -0.08594511449337006, -0.24318499863147736, -0.13294190168380737, 0.013954062946140766], [-0.20424975454807281, -0.2376234084367752, 0.30656513571739197, 0.06723395735025406, 0.15831193327903748, -0.1977727860212326, -0.2532534599304199, -0.12112013250589371, -0.2022760659456253, -0.06887725740671158, -0.19201163947582245, -0.019262371584773064, -0.11510401964187622, 0.11504003405570984, 0.18245676159858704, -0.19342482089996338, -0.2820608615875244, -0.020600825548171997, -0.10967134684324265, -0.25862985849380493, 0.11352263391017914, 0.04237714409828186, -0.17997750639915466, -0.1944618821144104, -0.27581554651260376, -0.1685056984424591, -0.04582100734114647, -0.23496322333812714, -0.16433118283748627, -0.312743216753006, -0.15059636533260345, 0.01699376478791237], [-0.46315857768058777, 0.05339279770851135, -0.3032105267047882, -0.1382826566696167, -0.41479527950286865, -0.208455890417099, 0.20295661687850952, -0.3249903619289398, 0.20404906570911407, 0.10104340314865112, 0.048953741788864136, -0.43563202023506165, -0.09281927347183228, 0.08332886546850204, -0.05375991016626358, -0.08738000690937042, 0.04546399042010307, 0.22326917946338654, -0.07154841721057892, -0.15632008016109467, -0.14048880338668823, -0.32284924387931824, -0.12668927013874054, -0.029869098216295242, 0.04293893650174141, -0.3387508988380432, -0.275919646024704, -0.0034651788882911205, -0.32979142665863037, -0.26077592372894287, -0.14659224450588226, -0.11067581176757812], [0.07212843000888824, -0.003818107070401311, -0.058153945952653885, -0.1821306049823761, 0.08135354518890381, 0.16674165427684784, -0.09175049513578415, 0.0034117531031370163, -0.11862029135227203, 0.020021794363856316, 0.09713044762611389, 0.20835798978805542, -0.26288989186286926, -0.031035801395773888, 0.34051743149757385, -0.01740814931690693, 0.0005637010326609015, 0.011268742382526398, -0.10095767676830292, -0.37173402309417725, -0.22582069039344788, -0.03970307856798172, -0.0037263804115355015, -0.03181568533182144, -0.3683846592903137, -0.19380855560302734, -0.0015213212464004755, -0.1295003890991211, -0.08711032569408417, -0.19733667373657227, -0.012851666659116745, -0.00798653531819582], [-0.5257959365844727, -0.02461102046072483, -0.31288930773735046, -0.29443660378456116, -0.019945908337831497, -0.47528454661369324, -0.5734589695930481, -0.20921358466148376, -0.48973047733306885, -0.3702827990055084, -0.19023215770721436, 0.07797898352146149, 0.32075998187065125, 0.10422221571207047, 0.06847796589136124, -0.40764567255973816, 0.184660866856575, 0.12846432626247406, 0.10365574061870575, 0.02285304106771946, -0.450865238904953, -0.47412994503974915, -0.2709566354751587, -0.00555808562785387, -0.3953738510608673, -0.4568323493003845, -0.12630562484264374, 0.018317950889468193, -0.27161315083503723, 0.009504973888397217, -0.17205455899238586, -0.0290323905646801], [0.28221142292022705, -0.06095706298947334, -0.12758344411849976, 0.13138267397880554, -0.1849532127380371, 0.03795633465051651, -0.02740979753434658, -0.1095929890871048, -0.04393864423036575, 0.08792056143283844, 0.007473250385373831, 0.053600016981363297, 0.20634838938713074, 0.15869960188865662, -0.11524449288845062, -0.07477051764726639, -0.10301177948713303, 0.010324003174901009, -0.10420028865337372, -0.055739495903253555, -0.04763927683234215, -0.09669531881809235, -0.15229742228984833, -0.125989630818367, -0.018507912755012512, 0.0854368507862091, -0.027265964075922966, -0.1497018039226532, -0.08815079927444458, -0.1599283069372177, 0.07256557792425156, 0.058861393481492996], [0.08234289288520813, -0.21971260011196136, -0.2605164051055908, 0.042245302349328995, -0.31605422496795654, 0.09325345605611801, -0.023438597097992897, -0.15139420330524445, -0.24902141094207764, 0.13659681379795074, -0.11563333868980408, 0.16657660901546478, -0.13356906175613403, -0.047509029507637024, 0.27026399970054626, -0.2199568748474121, -0.005513928364962339, -0.06857700645923615, -0.20548078417778015, -0.3535112142562866, 0.13206367194652557, -0.1436644196510315, -0.18966622650623322, -0.03311842307448387, -0.00464583607390523, -0.19034841656684875, -0.032640814781188965, -0.27220839262008667, 0.052105434238910675, 0.02671547420322895, -0.16293291747570038, -0.03622175753116608], [-0.11941955238580704, -0.41407260298728943, -0.1729302704334259, -0.41863754391670227, -0.518632709980011, -0.18324200809001923, -0.5801581740379333, -0.3094772398471832, -0.3322043716907501, -0.43685925006866455, -0.16971750557422638, -0.251460999250412, 0.32572609186172485, 0.270396888256073, -0.17818006873130798, -0.45104706287384033, -0.29939141869544983, -0.47196802496910095, -0.1145363450050354, -0.05471056327223778, -0.17694948613643646, -0.2856164872646332, -0.536258339881897, -0.5224425196647644, -0.3536514341831207, -0.4251306354999542, -0.43072962760925293, -0.16812482476234436, -0.15265467762947083, 0.18451784551143646, -0.4857625365257263, -0.5149055123329163], [0.03348002955317497, 0.003843877697363496, 0.030174123123288155, -0.09755514562129974, -0.13025513291358948, -0.17188675701618195, 0.11915731430053711, 0.03734298050403595, -0.08238301426172256, 0.035971641540527344, 0.08488202095031738, -0.012598826549947262, -0.004436476156115532, -0.011729204095900059, 0.13870099186897278, -0.11042533069849014, -0.06437992304563522, 0.045403845608234406, -0.2083066999912262, -0.11742620915174484, -0.044098932296037674, -0.014692937955260277, -0.07113514095544815, 0.016050221398472786, 0.02129310928285122, -0.14270108938217163, -0.018983416259288788, -0.0005453852936625481, -0.0414653941988945, 0.005678969901055098, -0.2638798952102661, -0.03807716816663742], [0.09017973393201828, -0.09033214300870895, -0.09791255742311478, 0.09959631413221359, 0.00481342663988471, -0.1587885469198227, -0.07435683161020279, -0.058887407183647156, -0.12376818805932999, -0.17913344502449036, -0.21606400609016418, -0.17099109292030334, -0.19963569939136505, -0.3017857074737549, 0.14293721318244934, 0.2486543506383896, -0.30062901973724365, -0.05390949174761772, -0.1071656346321106, 0.21173404157161713, 0.09976603835821152, -0.10103567689657211, -0.15677160024642944, 0.1277167946100235, -0.04855623468756676, -0.2368905246257782, -0.36729347705841064, -0.1201598048210144, -0.11424989998340607, 0.21001604199409485, 0.014683426357805729, -0.045245543122291565], [-0.01386974286288023, -0.20043759047985077, -0.1779034286737442, -0.5487990975379944, 0.3480554223060608, 0.018060829490423203, 0.008700190111994743, -0.16448578238487244, -0.11032337695360184, -0.17381665110588074, -0.20842213928699493, -0.4382183253765106, -0.12137934565544128, -0.36009636521339417, -0.1915980875492096, -0.6350858807563782, 0.10789883881807327, -0.09178334474563599, -0.08195365965366364, -0.05162625014781952, 0.15908685326576233, 0.0462360717356205, -0.3665892779827118, -0.16884329915046692, -0.5077123641967773, 0.18164560198783875, -0.027360353618860245, -0.2499721199274063, 0.005708301905542612, 0.06817732006311417, -0.14849993586540222, -0.08817080408334732], [0.018804484978318214, -0.08354178071022034, -0.08459018915891647, -0.07450387626886368, 0.1701020896434784, 0.222699373960495, -0.281869113445282, 0.014537149108946323, -0.0523209273815155, 0.04641975834965706, 0.09674234688282013, 0.1854015290737152, -0.054906755685806274, -0.3581760823726654, -0.29092803597450256, 0.11909287422895432, 0.01694365032017231, -0.12258884310722351, -0.016521219164133072, -0.014365696348249912, -0.373794287443161, 0.025710565969347954, -0.2909170091152191, -0.18445932865142822, -0.1581117957830429, -0.2909064292907715, -0.12702597677707672, -0.37378934025764465, -0.29725518822669983, -0.03315348923206329, -0.07152659446001053, -0.13016225397586823], [0.03230738639831543, -0.12115869671106339, -0.0382680706679821, -0.11707169562578201, 0.06162549927830696, 0.10414682328701019, 0.037332285195589066, -0.042063936591148376, 0.09466131031513214, 0.05875113233923912, 0.0025573032908141613, -0.11308953166007996, -0.024006430059671402, 0.07127311825752258, -0.16788281500339508, -0.09827622026205063, -0.050785668194293976, -0.030969753861427307, 0.09007307142019272, 0.09430454671382904, -0.007674435619264841, 0.047875504940748215, -0.06940019875764847, 0.013002103194594383, -0.1334110051393509, -0.10971349477767944, -0.04719684273004532, -0.1678963154554367, 0.06952104717493057, -0.056924957782030106, -0.05196565389633179, -0.1131160780787468], [0.03535977751016617, 0.08254696428775787, -0.06703171133995056, 0.12116209417581558, 0.09050921350717545, 0.15735507011413574, -0.14997537434101105, 0.17299005389213562, -0.2144261598587036, -0.055922981351614, 0.06924457848072052, -0.046147421002388, -0.049611467868089676, -0.1749112755060196, -0.08451080322265625, -0.1419803500175476, -0.21765835583209991, -0.12055619060993195, 0.0044450522400438786, -0.19295139610767365, 0.04045623168349266, -0.06956759095191956, -0.15854206681251526, -0.1841074377298355, 0.19595985114574432, -0.2902250289916992, -0.1203145831823349, 0.23084892332553864, -0.013620113022625446, -0.2689448893070221, -0.25942549109458923, -0.15718001127243042], [0.0576179176568985, 0.08498936891555786, -0.13023711740970612, 0.015444346703588963, -0.3609626591205597, -0.28280484676361084, -0.1299724131822586, -0.12070675194263458, -0.111731618642807, -0.06915756314992905, 0.19415192306041718, 0.05099774897098541, 0.12992383539676666, -0.0936819314956665, -0.14310017228126526, 0.24290868639945984, 0.15736638009548187, -0.00260038860142231, 0.13020023703575134, 0.1915772557258606, 0.10021103173494339, -0.20679672062397003, 0.12989763915538788, -0.05754493176937103, -0.0747053250670433, -0.034098390489816666, -0.128297358751297, -0.2923983037471771, -0.23224085569381714, 0.144913911819458, -0.11820852756500244, -0.22988519072532654], [-0.06424616277217865, 0.3284907937049866, -0.06539245694875717, -0.018873317167162895, -0.12432877719402313, -0.0681140273809433, -0.1669340878725052, -0.025125663727521896, -0.02604229748249054, -0.11602824926376343, -0.2439604550600052, 0.10817143321037292, -0.12686532735824585, -0.20299318432807922, 0.08158275485038757, -0.18690769374370575, 0.02412394806742668, 0.02688554674386978, 0.0810011476278305, -0.047537077218294144, -0.027356144040822983, -0.085108682513237, 0.08716801553964615, 0.004560868255794048, -0.21730314195156097, -0.16799405217170715, 0.03252267464995384, -0.07252255827188492, -0.0629032775759697, 0.09261725842952728, 0.07318618893623352, -0.059238534420728683], [-0.20341229438781738, 0.07504262775182724, -0.1696663796901703, -0.07888738065958023, 0.007202154491096735, -0.13553941249847412, 0.24310895800590515, -0.1792241930961609, -0.027020631358027458, -0.010976369492709637, 0.14505593478679657, -0.005421045236289501, 0.02691122703254223, 0.263385146856308, 0.0324544720351696, -0.061482738703489304, -0.10412124544382095, -0.11076103895902634, -0.09622062742710114, -0.27088287472724915, 0.06716721504926682, 0.0007559849182143807, -0.10534545034170151, -0.20536789298057556, -0.0979279950261116, -0.14730432629585266, -0.2075345516204834, -0.15593372285366058, 0.20138464868068695, 0.04456696659326553, -0.00873637292534113, -0.09174387902021408], [0.0009030741639435291, -0.12304497510194778, -0.10156606137752533, -0.3220464289188385, 0.00940695684403181, -0.13510534167289734, -0.12813599407672882, -0.01337448600679636, -0.2302750051021576, -0.18549568951129913, -0.07443135231733322, -0.2242944836616516, -0.1533311903476715, -0.07792550325393677, 0.1954524964094162, -0.21700969338417053, 0.011642809957265854, -0.07034450024366379, -0.0869789570569992, 0.006269280333071947, -0.030758725479245186, -0.09508749842643738, -0.0938347727060318, -0.06933752447366714, -0.16959898173809052, 0.061017956584692, 0.11855873465538025, -0.15756119787693024, -0.10283239930868149, -0.1330985277891159, -0.14930252730846405, 0.10482601076364517], [-0.02736026607453823, -0.18556280434131622, -0.014942442066967487, 0.21315406262874603, -0.02298072539269924, -0.2207677811384201, -0.056057896465063095, -0.37016308307647705, 0.11219878494739532, -0.07443279027938843, 0.11226528137922287, 0.1777200549840927, -0.1566135585308075, -0.10290428251028061, -0.09210100769996643, -0.232069730758667, -0.2456093579530716, -0.11655866354703903, -0.4235014021396637, -0.016603928059339523, -0.23744161427021027, -0.318831205368042, -0.022547170519828796, -0.29590046405792236, -0.23624297976493835, -0.35586634278297424, -0.17050544917583466, -0.3989545404911041, -0.19563017785549164, -0.6159893870353699, 0.12184370309114456, -0.20812830328941345], [-0.02222728170454502, 0.07614942640066147, -0.17958328127861023, -0.23083846271038055, -0.017313819378614426, -0.04839063063263893, -0.05415189266204834, -0.214514821767807, -0.21814270317554474, -0.1754111647605896, 0.18509060144424438, 0.18910565972328186, -0.36854448914527893, -0.28113284707069397, -0.01370911579579115, 0.03519850969314575, 0.10645100474357605, -0.24589397013187408, -0.17814573645591736, 0.07789984345436096, -0.272723525762558, -0.13052384555339813, -0.2716812193393707, -0.3361301124095917, -0.19739873707294464, -0.009448926895856857, -0.19516369700431824, -0.28440189361572266, -0.1299022138118744, -0.052128423005342484, -0.0896410197019577, -0.18832816183567047], [0.18061988055706024, -0.3239946663379669, 0.15637879073619843, -0.19402651488780975, 0.12192466109991074, -0.4439431130886078, 0.0027979505248367786, 0.03606128692626953, -0.06944949924945831, -0.2786594033241272, -0.3519461154937744, 0.05323489382863045, -0.14155510067939758, 0.1507006585597992, -0.1696883887052536, 0.1279231160879135, 0.14209121465682983, -0.03722361475229263, -0.035071197897195816, -0.20650047063827515, 0.11987802386283875, 0.22684819996356964, -0.47886544466018677, -0.3835325241088867, 0.055975284427404404, -0.04831264540553093, -0.24180999398231506, -0.2767643332481384, -0.0702950730919838, -0.055204734206199646, -0.3601033687591553, -0.3359626531600952], [-0.13519756495952606, -0.004535112529993057, -0.07214787602424622, -0.16492892801761627, -0.15065997838974, -0.21988534927368164, 0.006046676076948643, -0.20277932286262512, -0.21585547924041748, -0.22211579978466034, 0.21742527186870575, 0.03994998335838318, 0.06134156882762909, 0.06436620652675629, 0.048967182636260986, 0.0759066492319107, 0.3196415603160858, -0.04640008136630058, 0.007900533266365528, -0.09978167712688446, 0.13793312013149261, -0.0408899188041687, -0.034722648561000824, -0.07426094263792038, -0.08190000802278519, -0.27215883135795593, -0.276166707277298, -0.312863290309906, -0.025881271809339523, 0.010593269020318985, -0.15564171969890594, -0.12694695591926575], [0.11879926919937134, -0.0012910013319924474, -0.13206927478313446, -0.10786173492670059, -0.18779858946800232, -0.08901605010032654, -0.2036987692117691, -0.005585207603871822, -0.06562182307243347, -0.24130311608314514, -0.11265338957309723, 0.017456265166401863, -0.042441919445991516, -0.16161738336086273, -0.15022030472755432, 0.20299756526947021, 0.06536905467510223, -0.08365842700004578, 0.14838379621505737, 0.21647655963897705, 0.12558962404727936, -0.24207177758216858, 0.2563600540161133, -0.08311464637517929, -0.008205786347389221, 0.07080775499343872, -0.12872424721717834, 0.049421802163124084, -0.05363943800330162, -0.03341143578290939, -0.12417195737361908, -0.07487360388040543], [0.20477703213691711, 0.09414128214120865, 0.12487131357192993, -0.146617591381073, 0.13372397422790527, 0.09489984810352325, -0.013854354619979858, 0.08593849092721939, 0.025011321529746056, 0.16516606509685516, 0.09357205778360367, 0.149229496717453, -0.08954445272684097, -0.0626336857676506, -0.2799202501773834, -0.10831273347139359, -0.32140272855758667, -0.17128276824951172, 0.1486567258834839, -0.172786682844162, -0.11644481122493744, 0.004369129426777363, -0.12179511040449142, 0.020882518962025642, 0.03732423111796379, 0.024304304271936417, -0.023939507082104683, -0.1659039705991745, -0.16082102060317993, 0.009156832471489906, -0.1223454475402832, -0.1300983875989914], [0.03127076476812363, -0.018992934376001358, -0.21424561738967896, -0.08193045854568481, 0.10010568052530289, -0.2419852316379547, -0.07071369886398315, -0.04379410669207573, -0.14808720350265503, 0.19588139653205872, -0.42147696018218994, 0.10522760450839996, 0.01541069708764553, 0.05477285012602806, -0.15781603753566742, -0.056635163724422455, -0.13087047636508942, -0.12701046466827393, 0.10006062686443329, -0.0018336281646043062, -0.08277248591184616, -0.19964145123958588, -0.13890737295150757, -0.2179623246192932, -0.1881004124879837, 0.05968692898750305, -0.14949533343315125, -0.1608661264181137, -0.2212619036436081, -0.019168606027960777, -0.012100773863494396, 0.01021786592900753], [-0.1356622874736786, 0.010579051449894905, 0.0733841210603714, -0.08863522857427597, -0.08088487386703491, 0.07373009622097015, -0.24855893850326538, 0.21019065380096436, -0.13114146888256073, -0.3536914885044098, -0.2397603988647461, -0.08404102176427841, 0.15190383791923523, -0.16457541286945343, 0.004523721057921648, -0.08764997869729996, -0.09545224159955978, -0.3260597884654999, -0.16730892658233643, 0.13628390431404114, 0.20424781739711761, 0.07536328583955765, -0.0697912946343422, -0.07815194129943848, -0.5591688752174377, -0.09917397052049637, -0.17217062413692474, -0.07871963083744049, 0.18090443313121796, -0.04589638113975525, -0.19141565263271332, -0.09174127876758575], [-0.051625806838274, 0.13954634964466095, -0.639037013053894, -0.32992178201675415, -0.4955015182495117, -0.49115487933158875, -0.2787507474422455, -0.5092864036560059, -0.42393097281455994, -0.2054639607667923, -0.1463003307580948, 0.20096296072006226, -0.2544793486595154, -0.48000314831733704, -0.13982248306274414, -0.8281375765800476, -0.1176871657371521, -0.26228392124176025, -0.40304556488990784, 0.20974259078502655, -0.5102257132530212, -0.3606986105442047, -0.5507867336273193, -0.14456099271774292, -0.3664427697658539, -0.45479729771614075, -0.17642523348331451, -0.6040061116218567, -0.3460487127304077, 0.23036065697669983, -0.3915937542915344, -0.19287385046482086], [-0.12879927456378937, 0.1242685467004776, 0.12760920822620392, -0.12847143411636353, -0.014671477489173412, -0.3241271674633026, -0.10077042877674103, 0.06350957602262497, -0.20821580290794373, -0.09112901240587234, -0.2554405629634857, 0.17735114693641663, 0.08782140165567398, -0.31948933005332947, -0.030897721648216248, 0.13130070269107819, -0.016698697581887245, 0.070621058344841, -0.1856599748134613, -0.07111922651529312, -0.3306501805782318, 0.202464297413826, 0.20052386820316315, -0.23634181916713715, -0.05465364828705788, 0.09444959461688995, -0.15080535411834717, -0.14629463851451874, 0.09635548293590546, 0.0642276257276535, -0.15933530032634735, -0.101205013692379], [-0.22816796600818634, -0.155486598610878, -0.1708497852087021, -0.02794681489467621, -0.23362454771995544, -0.06075926125049591, -0.010466431267559528, -0.15217626094818115, 0.009046362712979317, -0.13006490468978882, 0.20385707914829254, -0.01005234569311142, -0.1186552345752716, -0.14417429268360138, 0.12737326323986053, -0.22382013499736786, 0.018293024972081184, 0.07101693004369736, -0.07176938652992249, -0.15935790538787842, -0.21294976770877838, -0.34447169303894043, -0.23109464347362518, -0.18094927072525024, -0.353047251701355, -0.24130482971668243, -0.25318148732185364, -0.2955101728439331, 0.05135417357087135, -0.04579233378171921, 0.08116862922906876, -0.3976060748100281], [-0.23749014735221863, 0.15345227718353271, -0.22540448606014252, 0.09429369866847992, 0.00038005440728738904, 0.17473916709423065, -0.2534935176372528, 0.07415983825922012, -0.020955270156264305, 0.09679261595010757, -0.13025332987308502, -0.12202928215265274, -0.044844213873147964, -0.15421998500823975, -0.16588902473449707, -0.1812426596879959, -0.10000438243150711, -0.03828298673033714, 0.12581539154052734, -0.16339707374572754, -0.09293664246797562, -0.15640801191329956, 0.10447034239768982, -0.020871808752417564, 0.13000260293483734, -0.06561806052923203, -0.10742903500795364, -0.0005813618772663176, -0.22817815840244293, -0.3304349482059479, -0.0338243693113327, -0.03712320327758789], [-0.044131357222795486, -0.054859407246112823, -0.054921749979257584, 0.00547958305105567, 0.08663725107908249, -0.01117971632629633, -0.0032185609452426434, -0.15341638028621674, -0.058776579797267914, -0.17633852362632751, -0.01789056323468685, -0.08612445741891861, 0.06883740425109863, 0.07149448990821838, 0.23505768179893494, 0.04968194663524628, 0.006847168784588575, -0.17898967862129211, -0.013876823708415031, -0.08857621997594833, -0.1964290291070938, -0.07599243521690369, -0.11293252557516098, 0.1228007897734642, -0.07470414787530899, -0.02786734700202942, -0.003854556707665324, -0.14655855298042297, -0.09610512107610703, 0.1163918524980545, -0.03233709558844566, 0.017519623041152954], [-0.1959381103515625, -0.09745591878890991, 0.013868935406208038, -0.27257075905799866, -0.35990697145462036, -0.0393914170563221, -0.17858831584453583, 0.13640031218528748, -0.18853838741779327, 0.19112169742584229, -0.05071025341749191, -0.06228436902165413, -0.1512090265750885, -0.1647382527589798, 0.1107756569981575, -0.3011200726032257, -0.4037133753299713, -0.008121969178318977, 0.10268596559762955, -0.15530088543891907, -0.41981029510498047, -0.13123561441898346, -0.24908070266246796, 0.12856754660606384, 0.15532636642456055, -0.21673642098903656, -0.09404024481773376, -0.06550605595111847, -0.2533590793609619, -0.10748183727264404, 0.18829450011253357, -0.065109983086586], [-0.07125097513198853, -0.05703887715935707, 0.12719975411891937, 0.04439334571361542, 0.010402866639196873, -0.01632057875394821, -0.08282513916492462, -0.12262199074029922, -0.2133733481168747, 0.0436350554227829, -0.04043502360582352, 0.03716696798801422, -0.0214840117841959, 0.09855127334594727, -0.12176866084337234, -0.017790988087654114, 0.09015485644340515, 0.11832543462514877, -0.07677413523197174, 0.09253834933042526, 0.12380951642990112, 0.0016138145001605153, -0.09589511156082153, 0.15305911004543304, -0.12579597532749176, -0.03506885841488838, 0.06330174952745438, -0.026228897273540497, 0.04563618078827858, 0.10394815355539322, -0.03596686199307442, 0.030910303816199303], [-0.17148557305335999, -0.09768383204936981, -0.1620822250843048, -0.05457984283566475, 0.013266266323626041, 0.04905376583337784, 0.06130856275558472, 0.05801910534501076, -0.05409591645002365, -0.026161815971136093, -0.07402773201465607, -0.196608766913414, 0.0019154567271471024, 0.0679345577955246, -0.03697803616523743, 0.024237604811787605, -0.06807395070791245, 0.03633498027920723, 0.042848605662584305, 0.08142996579408646, 0.03527016565203667, -0.004145100247114897, 0.020750466734170914, 0.0304244477301836, 0.051961325109004974, 0.0662783533334732, -0.1790970414876938, 0.02323385886847973, -0.1492975354194641, -0.0494016595184803, -0.012951643206179142, -0.26231464743614197], [-0.0050641512498259544, -0.07318383455276489, -0.10934899002313614, -0.03674338012933731, 0.04066213592886925, -0.03377032279968262, 0.06836392730474472, 0.12667930126190186, 0.016584251075983047, 0.10088984668254852, -0.0910600945353508, -0.10342317819595337, 0.14463010430335999, 0.24312043190002441, -0.10392291843891144, 0.0161849707365036, -0.009488102048635483, -0.08038508892059326, -0.02268476039171219, 0.05935629457235336, -0.09007352590560913, 0.03382038697600365, 0.054605577141046524, 0.11678172647953033, -0.0519145168364048, -0.07522799074649811, 0.09145025908946991, -0.08402413129806519, -0.06050220876932144, 0.05058019235730171, 0.0015078624710440636, -0.13586044311523438], [-0.06170511245727539, 0.0717179924249649, -0.13072316348552704, -0.13592225313186646, 0.0348205529153347, 0.10850732773542404, 0.02943074144423008, 0.030564259737730026, -0.00017137423856183887, 0.14594978094100952, -0.3126198947429657, 0.10679715126752853, 0.15936747193336487, -0.005317747127264738, -0.04541267454624176, -0.021333543583750725, -0.12876997888088226, -0.034622471779584885, -0.12490125745534897, -0.14497795701026917, 0.09550489485263824, 0.006195572670549154, -0.20512448251247406, -0.1662519872188568, 0.027134284377098083, 0.06623008102178574, 0.04989464581012726, 0.0769123062491417, 0.05625821277499199, -0.00628699641674757, -0.15118654072284698, 0.15670402348041534], [-0.2846832871437073, -0.09334000200033188, -0.14186851680278778, -0.05683435499668121, -0.20582257211208344, -0.19924303889274597, -0.2729335427284241, -0.1745913177728653, -0.2614203095436096, -0.18307071924209595, 0.03854694217443466, -0.04136589169502258, -0.3340769410133362, -0.4367382228374481, -0.030798612162470818, 0.0839119553565979, -0.1400129348039627, 0.15197142958641052, -0.23825009167194366, -0.09648540616035461, -0.1408027559518814, -0.10400184988975525, 0.09136908501386642, 0.1933102011680603, 0.16972938179969788, -0.45107051730155945, -0.1795962005853653, -0.07350298762321472, -0.12762677669525146, -0.17094358801841736, -0.042693886905908585, -0.08142339438199997], [-0.1606927067041397, 0.03551841154694557, -0.04528118297457695, -0.05106859281659126, 0.10858654230833054, -0.06519309431314468, -0.10001935809850693, -0.08580422401428223, 0.008866705931723118, 0.011481011286377907, 0.008587024174630642, 0.061524536460638046, -0.08183015137910843, 0.08159802109003067, 0.1790701150894165, 0.026991333812475204, -0.16987572610378265, 0.06481227278709412, -0.02464677393436432, -0.10302190482616425, 0.03760010749101639, -0.0962558463215828, -0.11862239986658096, 0.05512474477291107, -0.13408365845680237, -0.13009630143642426, -0.15006287395954132, 0.04951412230730057, -0.06960200518369675, -0.04602579399943352, -0.05528256297111511, -0.015321463346481323], [0.015381838195025921, 0.0044379266910254955, -0.07523807883262634, 0.09206857532262802, 0.1471501737833023, 0.012409662827849388, 0.07433077692985535, 0.10202716290950775, 0.0013638511300086975, 0.03394768759608269, 0.02846340648829937, 0.0686798244714737, -0.11704055219888687, 0.18564856052398682, 0.08545858412981033, -0.11443790793418884, 0.03703729435801506, -0.07900367677211761, -0.03852124512195587, -0.010249528102576733, -0.020060304552316666, -0.1068786010146141, -0.09516511857509613, 0.07575567811727524, -0.003930046688765287, -0.00427841255441308, -0.04756636917591095, -0.09328445792198181, -0.16069470345973969, -0.09854114055633545, -0.01562321837991476, -0.21621118485927582], [-0.044490743428468704, -0.15331420302391052, -0.3302851915359497, -0.14127959311008453, -0.0019345225300639868, 0.21390289068222046, 0.12341730296611786, -0.048040397465229034, 0.01873406581580639, -0.08277439326047897, -0.18663658201694489, -0.25841647386550903, -0.13705694675445557, -0.04278731718659401, -0.020468680188059807, -0.07749580591917038, 0.16153490543365479, 0.09885873645544052, 0.08182800561189651, -0.2954767048358917, -0.005552020855247974, -0.16716539859771729, -0.15117210149765015, -0.1398451030254364, 0.08618681877851486, -0.7040911316871643, -0.047585729509592056, -0.10453588515520096, -0.20338736474514008, 0.024615922942757607, -0.3198097050189972, -0.04641558602452278], [-0.14253368973731995, 0.09369416534900665, -0.05286877602338791, -0.22186267375946045, -0.21839936077594757, -0.2676420509815216, 0.15220123529434204, -0.2647860050201416, 0.11348883807659149, 0.07999026775360107, 0.17668204009532928, 0.06051638722419739, 0.11120487004518509, 0.13468758761882782, -0.09623908996582031, -0.22246979176998138, 0.09638385474681854, 0.11066535115242004, -0.1800857037305832, -0.3360276520252228, 0.019343113526701927, -0.23697398602962494, -0.19750156998634338, -0.18368230760097504, -0.08294257521629333, -0.313546746969223, -0.1275053322315216, -0.3041013181209564, -0.04397913068532944, 0.062415216118097305, -0.15730120241641998, -0.15278616547584534], [-0.06946683675050735, 0.3249877095222473, 0.18187165260314941, 0.2607768774032593, -0.1502653956413269, -0.2101370096206665, 0.09734155237674713, -0.20982474088668823, -0.03160512074828148, -0.012937432155013084, -0.05344098061323166, -0.012491348199546337, 0.0737522765994072, 0.252372682094574, -0.10623951256275177, -0.02645130269229412, -0.08828587085008621, -0.22317306697368622, -0.0823935717344284, 0.0031022937037050724, -0.28734859824180603, -0.3040936589241028, 0.09281273931264877, -0.19544623792171478, -0.1834821105003357, -0.15679052472114563, -0.08959626406431198, -0.00978422537446022, -0.040007296949625015, -0.40202197432518005, -0.02814617194235325, -0.03346440941095352], [0.0504794716835022, 0.13365107774734497, -0.17238441109657288, -0.13298094272613525, -0.2605723440647125, -0.09264575690031052, 0.11761403828859329, 0.12043754756450653, 0.013084574602544308, 0.08250873535871506, -0.30025795102119446, 0.09688272327184677, 0.06996329128742218, -0.2154238224029541, -0.045810166746377945, 0.11664942651987076, 0.11543812602758408, -0.016372358426451683, -0.02832518145442009, -0.19015997648239136, -0.19749581813812256, 0.13792310655117035, -0.3903168737888336, -0.15420351922512054, 0.22277289628982544, 0.0996699407696724, -0.13893017172813416, 0.21909715235233307, 0.09084676951169968, -0.3015080690383911, -0.09184474498033524, -0.06835997104644775], [-0.05151735618710518, -0.11450063437223434, -0.19626690447330475, -0.24026384949684143, -0.07473719865083694, 0.12207414954900742, -0.5359376072883606, 0.039342716336250305, 0.00857020914554596, 0.01732836663722992, -0.4780988097190857, 0.05108123645186424, -0.6174969673156738, -0.3282622694969177, -0.18978944420814514, -0.27108657360076904, 0.036831632256507874, -0.02724633552134037, 0.1893404871225357, 0.10738947242498398, -0.2457411140203476, -0.2012387067079544, 0.055270254611968994, 0.2251838594675064, -0.25115731358528137, -0.3183905780315399, -0.23214122653007507, -0.03842718154191971, -0.3075893819332123, 0.12582138180732727, -0.3545284569263458, -0.12965652346611023], [-0.06433296203613281, 0.2143591344356537, -0.017425447702407837, 0.047508355230093, -0.04179040342569351, -0.19869068264961243, 0.06511159986257553, -0.29401636123657227, -0.20253027975559235, -0.2970685064792633, -0.327321320772171, -0.3562423884868622, 0.06328646093606949, -0.5198727250099182, 0.11770246922969818, -0.2064213901758194, 0.1993436962366104, -0.1557060182094574, -0.1800958663225174, -0.1994355469942093, 0.22634349763393402, -0.46280401945114136, -0.40241196751594543, -0.013768044300377369, -0.46017101407051086, -0.17112672328948975, -0.17574889957904816, -0.1998690366744995, 0.22370545566082, 0.2651370167732239, -0.12895910441875458, -0.16426949203014374], [-0.059714652597904205, 0.1977769285440445, -0.12892889976501465, -0.1367524415254593, -0.1483306884765625, -0.25625982880592346, -0.09136588126420975, -0.11343596130609512, -0.23543569445610046, -0.11405790597200394, -0.5065792202949524, 0.12012219429016113, 0.06219612807035446, -0.24863456189632416, -0.11756832897663116, -0.29762154817581177, 0.1609237790107727, -0.1095089390873909, -0.03318146616220474, -0.4690574109554291, -0.2752383053302765, -0.337746262550354, -0.040513161569833755, 0.045038122683763504, 0.27459293603897095, 0.06236029043793678, -0.05885159596800804, -0.06849689036607742, -0.013201511465013027, -0.3163524270057678, 0.0900784358382225, 0.017157290130853653], [-0.04033671319484711, -0.08908578008413315, -0.020560625940561295, -0.2016848921775818, -0.04953954368829727, -0.2730309069156647, -0.037700437009334564, -0.06493457406759262, -0.13089439272880554, -0.011563022620975971, -0.11746948212385178, -0.4936363995075226, -0.11334972828626633, -0.022720258682966232, 0.36457279324531555, -0.28490233421325684, -0.08386030048131943, -0.002692718058824539, -0.1873423457145691, -0.06814637780189514, -0.11819057166576385, -0.05390934646129608, -0.1520949900150299, -0.034170638769865036, -0.12008129805326462, -0.08367082476615906, -0.13055846095085144, -0.258884996175766, -0.01321020070463419, 0.038497451692819595, 0.1502159833908081, 0.005930047482252121], [-0.2945493757724762, -0.0012239743955433369, -0.14733561873435974, 0.17373766005039215, -0.08179270476102829, -0.13195832073688507, -0.06999700516462326, -0.3329947590827942, -0.21479621529579163, -0.2837356626987457, -0.2446015477180481, -0.29030153155326843, 0.19063760340213776, 0.12559270858764648, -0.38681820034980774, -0.45695358514785767, -0.26415008306503296, 0.14878816902637482, -0.3388340473175049, 0.039270997047424316, -0.060514118522405624, -0.36809393763542175, -0.3837060332298279, -0.3520102798938751, -0.346513569355011, -0.48419705033302307, -0.12171687185764313, -0.21512019634246826, -0.12912492454051971, -0.1995115727186203, 0.2949408292770386, -0.29338744282722473], [0.11744190752506256, 0.05255650728940964, -0.014949271455407143, 0.14953820407390594, 0.03509734570980072, 0.15851864218711853, -0.23410436511039734, -0.0002794456377159804, -0.2592443823814392, 0.08642705529928207, 0.15965591371059418, 0.02369941957294941, -0.02766992524266243, -0.10736870765686035, -0.19776764512062073, -0.3601836860179901, -0.19674083590507507, -0.10137615352869034, 0.08027306199073792, -0.23958493769168854, 0.12441907078027725, -0.22189773619174957, -0.3003314435482025, -0.2254772037267685, -0.017633581534028053, 0.28939440846443176, -0.15442684292793274, -0.2784470021724701, 0.182279571890831, -0.07120820134878159, -0.12028305977582932, -0.17573587596416473], [0.06540384143590927, -0.16742847859859467, 0.0650533065199852, 0.01950976252555847, 0.11020755767822266, 0.05462100729346275, 0.016028650104999542, -0.03768852725625038, -0.19202782213687897, 0.058780938386917114, -0.04429798945784569, 0.02177431620657444, 0.030071690678596497, -0.021023234352469444, 0.09775801748037338, -0.12848389148712158, 0.10586158186197281, -0.048826638609170914, -0.19119702279567719, 0.02771541103720665, 0.03035072423517704, -0.027464712038636208, -0.10317131131887436, 0.04018103703856468, 0.06460483372211456, -0.007714488543570042, -0.1846741884946823, -0.10581216216087341, 0.002219919813796878, -0.1756518930196762, -0.0786413699388504, -0.10080550611019135], [0.17330503463745117, -0.13937290012836456, -0.15879881381988525, 0.01687995158135891, 0.13929302990436554, -0.043027229607105255, -0.09486740082502365, 0.02198088727891445, -0.105881467461586, -0.13141752779483795, 0.02276507206261158, 0.02937176823616028, -0.03700704872608185, -0.01762775518000126, 0.3241523504257202, -0.14578992128372192, -0.09483511000871658, -0.17572203278541565, -0.11831434071063995, -0.02587730996310711, -1.625693403184414e-05, -0.06739541888237, -0.1802627593278885, 0.057665497064590454, -0.09692167490720749, 0.004199303220957518, 0.046267248690128326, -0.05087897181510925, -0.17832829058170319, -0.27100861072540283, -0.0717039629817009, -0.1968669295310974], [0.2737801671028137, -0.20157548785209656, -0.21000924706459045, 0.017335908487439156, -0.3609968423843384, 0.012701531872153282, -0.1286311149597168, -0.18658781051635742, -0.16874229907989502, -0.21606239676475525, -0.0837884470820427, -0.20332959294319153, 0.12494919449090958, 0.17895308136940002, -0.05332708731293678, -0.339457243680954, -0.46812310814857483, -0.14257997274398804, -0.03370276093482971, -0.006973357871174812, -0.13872839510440826, -0.13167016208171844, -0.14578057825565338, 0.012963864021003246, -0.472623348236084, 0.03214924409985542, -0.12143006175756454, -0.2329467087984085, -0.4668463468551636, 0.019831569865345955, -0.11042800545692444, -0.12454099208116531], [-0.8461335301399231, -0.42209717631340027, -0.1566796600818634, -0.509425938129425, -0.7681319713592529, -0.6013003587722778, -0.30782550573349, -0.6676927804946899, -0.5470431447029114, -0.1656150221824646, -0.4263385236263275, 0.22353708744049072, -0.18350005149841309, -0.5796419382095337, 0.21107520163059235, -0.2446746528148651, -0.7284502387046814, -0.238321453332901, -0.44479259848594666, 0.35601627826690674, -0.08707202225923538, -0.568427324295044, -0.4543395936489105, -0.4154420793056488, -0.516045331954956, -0.41460463404655457, -0.48266351222991943, -0.6437394022941589, -0.3054698705673218, 0.21299920976161957, -0.5663114190101624, -0.2568816840648651], [0.11475387960672379, -0.06826882809400558, -0.09357012808322906, -0.24907609820365906, -0.08298780769109726, -0.2754947543144226, -0.028168009594082832, -0.037345726042985916, -0.04586825519800186, -0.04383113235235214, 0.1196882575750351, -0.27644819021224976, 0.23600666224956512, 0.1820937693119049, -0.3117811381816864, -0.1612812727689743, -0.4025591313838959, -0.23925471305847168, -0.26024961471557617, -0.017329813912510872, 0.2031784951686859, -0.08110883086919785, -0.12272869795560837, 0.00043929117964580655, -0.48506924510002136, 0.09344278275966644, -0.0700090304017067, -0.1888655573129654, 0.0007321088341996074, 0.04856501519680023, -0.09360259026288986, -0.01965503953397274], [0.01930088736116886, 0.016181891784071922, -0.20670582354068756, 0.08684588968753815, -0.1956377476453781, -0.14885197579860687, -0.017426224425435066, -0.019197236746549606, -0.09839513152837753, -0.06197304651141167, -0.19041302800178528, 0.20237058401107788, -0.16122256219387054, 0.25202858448028564, 0.10866085439920425, -0.2623749375343323, 0.10078446567058563, -0.07605347037315369, -0.21186521649360657, -0.2779073119163513, -0.15156906843185425, -0.020724259316921234, -0.26221105456352234, -0.025797074660658836, -0.06602448970079422, -0.0737205445766449, -0.1088668555021286, -0.08851957321166992, -0.17123191058635712, -0.037046365439891815, -0.24431252479553223, 0.06345710903406143], [0.07155647873878479, 0.21281664073467255, 0.2939341366291046, 0.015199597924947739, 0.020021449774503708, -0.003530890680849552, -0.0625871941447258, 0.01814926043152809, -0.004240227863192558, -0.05917988717556, -0.24997666478157043, -0.17663538455963135, -0.2551533281803131, -0.036220334470272064, -0.06472088396549225, 0.09208641946315765, -0.2306547909975052, -0.24947014451026917, -0.0011444961419329047, -0.11354463547468185, -0.06419078260660172, -0.0997128039598465, -0.36111196875572205, -0.10973861068487167, -0.03556118160486221, 0.07835892587900162, -0.06149989366531372, 0.05170414224267006, -0.20264215767383575, 0.0960540622472763, -0.12356238812208176, -0.10944626480340958], [0.02362733893096447, -0.05277631804347038, -0.020886339247226715, -0.18978169560432434, -0.13343322277069092, 0.11583135277032852, -0.2272922545671463, 0.024901846423745155, -0.11941637843847275, 0.13287682831287384, -0.06184396892786026, 0.08888312429189682, -0.15360960364341736, -0.12133010476827621, 0.0017927205190062523, -0.07542265951633453, 0.005450528115034103, 0.11746542900800705, -0.1324336975812912, -0.05954810976982117, 0.0629192665219307, -0.10110948234796524, -0.09423216432332993, 0.2976568937301636, 0.0018284206744283438, -0.23878365755081177, -0.07615437358617783, -0.12362703680992126, 0.018062850460410118, -0.16150745749473572, -0.08878537267446518, -0.15744461119174957], [0.1917005181312561, -0.07755166292190552, -0.08719773590564728, -0.11720000952482224, 0.13634972274303436, -0.13846862316131592, 0.07701261341571808, -0.12218239903450012, -0.09518373012542725, -0.5159788131713867, -0.30854520201683044, -0.05812906101346016, -0.255250483751297, 0.17867514491081238, -0.056004900485277176, -0.05287201330065727, -0.03673592954874039, 0.004562842659652233, -0.08418335020542145, 0.016955822706222534, 0.13316363096237183, 0.23851460218429565, -0.45603427290916443, -0.309442937374115, 0.09212882816791534, -0.22147880494594574, -0.11319943517446518, 0.1049952507019043, 0.03324785828590393, 0.030595554038882256, -0.1405555009841919, -0.18070575594902039], [-0.2383141815662384, -0.2461143583059311, -0.2741679251194, -0.047217175364494324, -0.06834190338850021, 0.007753342390060425, -0.13056720793247223, -0.35218724608421326, -0.15200752019882202, 0.07882053405046463, 0.1296827346086502, -0.23205260932445526, -0.08689401298761368, -0.3523796796798706, 0.08529370278120041, 0.030938351526856422, -0.2780144512653351, -0.06043871492147446, 0.1022377759218216, -0.008143357932567596, -0.3332606554031372, -0.2106909304857254, -0.2625589966773987, 0.14152662456035614, 0.14794762432575226, 0.09465998411178589, -0.33687832951545715, 0.06791525334119797, 0.09429455548524857, 0.03125374764204025, 0.19251571595668793, -0.26442036032676697], [0.1311267465353012, -0.16273632645606995, -0.08640266954898834, -0.22657394409179688, 0.01925884559750557, -0.04356731101870537, -0.1949368417263031, -0.012388424016535282, -0.005534321069717407, -0.030474182218313217, 0.3033127188682556, -0.07592172920703888, 0.09456020593643188, -0.13133504986763, 0.1335957944393158, 0.07346556335687637, -0.17583240568637848, -0.20011642575263977, -0.09724993258714676, -0.1518511325120926, -0.09614414721727371, 0.08437991142272949, -0.16813457012176514, -0.04242211580276489, 0.014629770070314407, -0.03285461291670799, -0.2325448840856552, 0.012350308708846569, 0.059627387672662735, -0.07419252395629883, -0.1879103183746338, -0.3242208659648895], [-0.07494053244590759, -0.2737148106098175, -0.14432059228420258, -0.16360653936862946, 0.04140448570251465, -0.22701571881771088, 0.27079567313194275, -0.22796204686164856, -0.34653690457344055, -0.00035823433427140117, -0.35791015625, -0.11125640571117401, 0.13095152378082275, -0.229988694190979, 0.15552769601345062, -0.12594708800315857, -0.050981033593416214, -0.09694677591323853, -0.38005590438842773, -0.1465093493461609, 0.11298399418592453, -0.28186890482902527, 0.30114424228668213, 0.16071216762065887, -0.1760958582162857, 0.04279791936278343, -0.04859081655740738, -0.08537434041500092, -0.054291851818561554, 0.16250954568386078, -0.2659456729888916, -0.0345095694065094], [-0.020411554723978043, 0.01935603842139244, 0.16373518109321594, 0.02284874953329563, -0.012516254559159279, 0.042784303426742554, -0.1595001071691513, -0.049931637942790985, -0.150703564286232, -0.08760132640600204, 0.016028691083192825, -0.06605348736047745, 0.11252836883068085, 0.02512817271053791, 0.002557929838076234, 0.05713041126728058, -0.10141277313232422, 0.04978806897997856, 0.10192438960075378, -0.03209403529763222, -0.15509116649627686, 0.03364935517311096, -0.2111198455095291, 0.08819308876991272, 0.1477435976266861, -0.09676174074411392, 0.15076524019241333, 0.07859654724597931, -0.020402545109391212, -0.12040191888809204, -0.20580805838108063, 0.06949935853481293], [0.02220599539577961, -0.09181468933820724, -0.019825857132673264, -0.01625858061015606, 0.09809553623199463, 0.021140385419130325, -0.020259607583284378, -0.13667261600494385, -0.10061851143836975, 0.10756257176399231, -0.04635212942957878, -0.001108066993765533, -0.2249331921339035, -0.001759447273798287, -0.13907495141029358, -0.11947610974311829, 0.07823598384857178, -0.13839514553546906, -0.15530343353748322, -0.013552510179579258, 0.06587431579828262, -0.1510714292526245, -0.11980794370174408, 0.06884072721004486, -0.014058944769203663, -0.07544562965631485, 0.15858229994773865, -0.04672033339738846, -0.04078255966305733, -0.1145377904176712, -0.10967100411653519, -0.043452899903059006], [0.003183516673743725, -0.14877104759216309, 0.16905996203422546, -0.1933518499135971, -0.25642696022987366, -0.37599050998687744, 0.15685954689979553, -0.1434939056634903, 0.27688512206077576, -0.15580523014068604, 0.15059442818164825, 0.06953062117099762, -0.06793180853128433, 0.15045104920864105, -0.21344773471355438, 0.04037413373589516, 0.004217455163598061, 0.01106145791709423, -0.15786288678646088, 0.16753476858139038, 0.09893444180488586, -0.07159853726625443, -0.20053784549236298, -0.33232009410858154, -0.7079361081123352, 0.1006028950214386, -0.06300954520702362, -0.07905641943216324, -0.07820095866918564, 0.054432183504104614, -0.19707144796848297, 0.052710097283124924], [-0.3954932689666748, 0.07039657235145569, 0.10285269469022751, 0.024153217673301697, 0.0717497169971466, 0.047456733882427216, -0.2717670202255249, 0.04003224894404411, -0.3176775276660919, -0.1057734563946724, -0.10574109852313995, -0.2905105948448181, -0.012333463877439499, -0.13139797747135162, -0.12364795058965683, 0.07385457307100296, -0.120356984436512, 0.2753050625324249, 0.09190629422664642, -0.2773265242576599, -0.011904419399797916, 0.06463583558797836, -0.05327271297574043, -0.03356964886188507, -0.07636232674121857, -0.3433152437210083, -0.05069674551486969, -0.07544995099306107, -0.3613448739051819, -0.18047747015953064, -0.2553374171257019, -0.2591620981693268], [0.05861242488026619, 0.03128211572766304, -0.012126571498811245, 0.09176983684301376, -0.005706568248569965, -0.07300198823213577, 0.04383086413145065, 0.05819237604737282, -0.06110784411430359, 0.13763241469860077, -0.45611271262168884, 0.21777749061584473, 0.0076701152138412, -0.025340106338262558, -0.11451825499534607, -0.135563462972641, -0.009066451340913773, -0.16563217341899872, -0.0766315907239914, -0.09953846037387848, -0.1433645635843277, -0.1150643453001976, 0.070192851126194, 0.033137671649456024, -0.13490405678749084, -0.02013988047838211, -0.07808535546064377, 0.05901321768760681, 0.009181425906717777, -0.016618788242340088, 0.02521306276321411, -0.15124377608299255], [-0.0051198359578847885, -0.08891067653894424, -0.1117200031876564, -0.22353944182395935, 0.004488293547183275, -0.21291491389274597, -0.061989493668079376, 0.009523464366793633, 0.19017821550369263, -0.13049806654453278, 0.08611110597848892, 0.05505863204598427, -0.09609224647283554, 0.000499820162076503, -0.1645553559064865, -0.007098479196429253, 0.21512074768543243, -0.15794767439365387, 0.15739263594150543, 0.19344566762447357, 0.05225683003664017, -0.356421560049057, -0.16351047158241272, -0.04064972698688507, -0.4017696976661682, -0.492028146982193, -0.07483891397714615, 0.19493094086647034, -0.23630669713020325, -0.21379947662353516, -0.1514757126569748, -0.10632924735546112], [0.21362634003162384, -0.07516665011644363, 0.27361181378364563, 0.3293156623840332, 0.18267901241779327, -0.12968236207962036, -0.35175058245658875, -0.21304002404212952, -0.17664925754070282, -0.06789103895425797, -0.09311454743146896, 0.23698271811008453, 0.1661670207977295, 0.17712236940860748, -0.3184155523777008, -0.1995440274477005, -0.08293218165636063, -0.24218371510505676, 0.05585651099681854, 0.04150356352329254, 0.08880328387022018, -0.24706697463989258, -0.1743604987859726, 0.005141044035553932, -0.2785428464412689, -0.12051230669021606, 0.06776387989521027, -0.10791481286287308, -0.08942369371652603, -0.1444983035326004, -0.21737928688526154, 0.12349330633878708], [-0.08953401446342468, 0.19412793219089508, -0.23305292427539825, -0.024399520829319954, 0.09293770790100098, 0.033089034259319305, 0.03376273065805435, -0.2703007757663727, 0.11818145215511322, 0.14346617460250854, 0.030247949063777924, -0.2110264003276825, -0.09704108536243439, -0.04152335226535797, -0.020760631188750267, 0.020613692700862885, -0.12298043072223663, 0.08689090609550476, -0.3957067131996155, -0.1916780322790146, -0.4849439859390259, -0.09113343060016632, 0.02472953125834465, -0.1912526786327362, 0.29347869753837585, 0.08671023696660995, -0.13882504403591156, -0.034174416214227676, 0.02330552414059639, -0.3766188323497772, 0.17360158264636993, 0.015748977661132812], [-0.2513999044895172, -0.10547253489494324, -0.038933102041482925, -0.2755342721939087, -0.22902044653892517, -0.2611456513404846, -0.254172682762146, -0.08822981268167496, -0.12738512456417084, -0.12401234358549118, 0.20687752962112427, -0.09622831642627716, 0.203450009226799, 0.17832648754119873, -0.2937908172607422, -0.29011526703834534, -0.34765446186065674, -0.19209061563014984, -0.06349069625139236, -0.18852472305297852, 0.07456308603286743, -0.1806732416152954, -0.13081711530685425, 0.0011627216590568423, -0.09492524713277817, -0.3462502062320709, -0.045806724578142166, -0.20921804010868073, -0.1912088245153427, 0.06578753143548965, -0.13668429851531982, 0.07774046808481216], [-0.2083967626094818, -0.24532237648963928, -0.10921096801757812, 0.09820149093866348, -0.06346746534109116, 0.12074033170938492, -0.051955096423625946, 0.08119639754295349, -0.07358583807945251, -0.04271772503852844, -0.28740403056144714, -0.2188127040863037, 0.04065109044313431, -0.03505013510584831, -0.21760472655296326, 0.06272141635417938, -0.027455748990178108, -0.06114381551742554, -0.16955852508544922, 0.03040142171084881, 0.07964103668928146, 0.17131902277469635, -0.09916533529758453, 0.18634577095508575, -0.048725564032793045, 0.033248819410800934, -0.1296924501657486, -0.014632788486778736, -0.19565173983573914, -0.2359657734632492, -0.3115904927253723, -0.07325106859207153], [-0.11299990862607956, -0.05442194268107414, 0.07851684093475342, -0.09758110344409943, 0.042287446558475494, 0.04914814233779907, -0.10853531956672668, -0.09238025546073914, 0.009981385432183743, 0.02424754947423935, 0.01731482706964016, 0.010323317721486092, -0.03457873687148094, -0.07948029786348343, 0.017099654302001, 0.07323406636714935, -0.06591890007257462, 0.11730054765939713, -0.01316884532570839, 0.11750314384698868, 0.06781872361898422, -0.02254360169172287, 0.034382157027721405, 0.04708976298570633, 0.12244166433811188, -0.012092594988644123, 0.04870790243148804, 0.05233851075172424, -0.0029159742407500744, -0.035129364579916, -0.08770132064819336, -0.027678165584802628], [0.06795571744441986, 0.1323762685060501, -0.007485099136829376, -0.09347657859325409, -0.0823185071349144, -0.25039324164390564, -0.10788119584321976, -0.057763244956731796, -0.4669129252433777, -0.2377733290195465, -0.5212593078613281, 0.16616784036159515, -0.020502503961324692, -0.17618060111999512, 0.1543835997581482, -0.009469050914049149, -0.03075348772108555, -0.09241561591625214, -0.24611890316009521, -0.5816682577133179, -0.49016377329826355, -0.06399033963680267, -0.05909687280654907, -0.1253155767917633, -0.16007645428180695, -0.03303254768252373, -0.011907569132745266, -0.03036884032189846, -0.09089593589305878, -0.22924074530601501, -0.06262437254190445, -0.12982392311096191], [-0.05765163153409958, 0.016505852341651917, 0.005315838847309351, -0.1127629354596138, -0.041399046778678894, -0.03024294599890709, -0.09847990423440933, 0.048258084803819656, 0.1140107735991478, 0.04647919908165932, 0.03830008953809738, 0.09187864512205124, 0.023947931826114655, -0.13406603038311005, -0.13081318140029907, 0.05396319180727005, -0.13735730946063995, 0.09053269773721695, 0.17679160833358765, -0.035360440611839294, -0.06671134382486343, 0.045498304069042206, -0.14019232988357544, 0.10339441150426865, 0.05677022412419319, -0.2022813856601715, -0.004848076496273279, 0.027002627030014992, 0.05802242085337639, 0.08628904074430466, 0.041687995195388794, 0.09646479785442352], [-0.058987729251384735, -0.1890888214111328, 0.04016130790114403, 0.08974725008010864, -0.06556198745965958, -0.17960134148597717, -0.11864477396011353, -0.008571344427764416, -0.06804794073104858, -0.026803838089108467, 0.06361591070890427, -0.08805007487535477, 0.038399022072553635, -0.07460759580135345, 0.1609145551919937, -0.10200704634189606, -0.22056041657924652, 0.0067625828087329865, -0.07111049443483353, -0.23266704380512238, -0.0559905543923378, -0.18380777537822723, -0.1374073475599289, -0.019032780081033707, 0.05606246367096901, -0.08665940910577774, 0.021338559687137604, -0.06143607944250107, 0.05011957138776779, -0.18027380108833313, -0.0290280282497406, 0.1436278373003006], [-0.04060737416148186, -0.03754623606801033, -0.047133948653936386, -0.020724764093756676, -0.18116694688796997, -0.25520122051239014, -0.21176524460315704, 0.08092547953128815, 0.05268925428390503, -0.11252696812152863, 0.015616736374795437, -0.0859774798154831, -0.12651583552360535, -0.17783556878566742, 0.043822918087244034, -0.045113660395145416, -0.2424485832452774, 0.09328239411115646, 0.002659173682332039, 0.10267078131437302, 0.0053761862218379974, -0.043990761041641235, -0.21566987037658691, -0.14962159097194672, -0.15922459959983826, -0.2504744827747345, -0.206146240234375, 0.22795981168746948, -0.013595704920589924, -0.06257129460573196, -0.1927064061164856, -0.28405696153640747], [-0.08258166909217834, -0.020885011181235313, 0.06279012560844421, -0.06540661305189133, 0.07762258499860764, -0.05669277161359787, 0.017290465533733368, -0.02828635647892952, -0.08136066794395447, -0.03059099055826664, -0.06825369596481323, 0.010838019661605358, 0.04679082706570625, -0.13149501383304596, 0.08844234049320221, -0.033622659742832184, 0.008441779762506485, 0.09640966355800629, 0.12837167084217072, -0.04861574247479439, 0.09968786686658859, -0.14789935946464539, -0.1578141301870346, 0.048211365938186646, -0.23045296967029572, 0.007793269120156765, 0.08993618935346603, 0.02300088107585907, 0.1065014973282814, 0.051602933555841446, 0.04596669599413872, -0.027479929849505424], [0.12787091732025146, -0.29058730602264404, -0.06890547275543213, -0.16668900847434998, -0.12265041470527649, -0.4043024182319641, 0.0005591603694483638, -0.3194594383239746, -0.47328996658325195, -0.29374396800994873, 0.014607729390263557, -0.39831972122192383, -0.20273540914058685, 0.07397332787513733, -0.24857641756534576, 0.01324397511780262, 0.15998634696006775, 0.04974021390080452, -0.46213704347610474, -0.20464052259922028, -0.0015671130968257785, -0.34580275416374207, -0.38548868894577026, -0.27983954548835754, -0.2586788535118103, -0.16357268393039703, -0.16252779960632324, -0.1736885905265808, 0.06774409860372543, -0.11288214474916458, -0.27174878120422363, -0.1780575066804886], [-0.1660109907388687, -0.020630113780498505, 0.14429135620594025, -0.08236118406057358, -0.00841460656374693, -0.13415482640266418, -0.2754737138748169, 0.05801628902554512, 0.1785871982574463, 0.17315752804279327, -0.255320280790329, -0.022732213139533997, -0.30933165550231934, 0.06806351244449615, -0.10186376422643661, -0.09473133087158203, -0.243675097823143, -0.05770125240087509, -0.3203947842121124, -0.20006299018859863, -0.2163645327091217, 0.026445573195815086, -0.29282471537590027, -0.017951196059584618, -0.24133525788784027, -0.19460585713386536, -0.15358175337314606, -0.09931642562150955, -0.09350842237472534, -0.09286507964134216, -0.18861305713653564, -0.10328526794910431], [-0.14585095643997192, 0.19690285623073578, 0.05716867372393608, -0.2982672452926636, 0.2731609642505646, 0.24116729199886322, -0.08681030571460724, -0.15474660694599152, 0.22822979092597961, 0.20910784602165222, -0.4997316598892212, -0.05561867728829384, -0.15252645313739777, 0.04085608199238777, -0.07480794936418533, -0.24442468583583832, 0.03291616961359978, -0.1636257767677307, 0.1413654386997223, -0.5457643270492554, -0.20127008855342865, 0.0761399194598198, -0.2816973924636841, 0.02157319337129593, -0.0318916030228138, -0.2589375674724579, -0.08491892367601395, 0.003372184932231903, -0.025561198592185974, -0.22136396169662476, -0.11778333783149719, 0.0750642642378807], [0.18388855457305908, 0.08695569634437561, -0.08272694051265717, 0.31524544954299927, -0.03381364792585373, 0.1585896611213684, -0.2852356433868408, -0.1738315373659134, -0.4013342261314392, -0.03603757172822952, 0.2621229588985443, -0.11435866355895996, 0.11079888790845871, 0.10493098199367523, 0.010089459829032421, -0.009207421913743019, -0.21293425559997559, 0.01909179426729679, -0.23752383887767792, 0.08476817607879639, -0.21983355283737183, -0.2959965765476227, -0.13722386956214905, -0.35434746742248535, 0.10225937515497208, 0.1574157178401947, -0.07193610817193985, -0.19122180342674255, -0.39578312635421753, -0.3441314995288849, -0.11734107881784439, -0.0694722905755043], [-0.24549302458763123, -0.10999345779418945, 0.03950094059109688, -0.06534115225076675, -0.20662973821163177, 0.05302303656935692, -0.20268574357032776, 0.1444501280784607, -0.3193889856338501, -0.18587009608745575, -0.013330059126019478, 0.010832197964191437, 0.08934316784143448, 0.14634621143341064, 0.0915071964263916, 0.026486940681934357, -0.18251587450504303, 0.08314704895019531, 0.12057821452617645, 0.17754924297332764, 0.14233459532260895, -0.08415284752845764, -0.305759072303772, -0.24292327463626862, -0.45874324440956116, -0.4119318723678589, -0.1792089343070984, -0.07853756099939346, -0.2847282886505127, -0.05566015839576721, -0.22562792897224426, -0.23008057475090027], [0.05995737388730049, -0.30746763944625854, -0.08607444912195206, -0.30667150020599365, 0.24534399807453156, 0.04154891148209572, -0.2898509204387665, -0.40938442945480347, 0.0008466187864542007, -0.5194530487060547, 0.1419440656900406, 0.09908057004213333, 0.002618228318169713, -0.1029902994632721, -0.16202175617218018, 0.1195371076464653, -0.17615185678005219, 0.08269337564706802, -0.15239450335502625, -0.3330934941768646, 0.1232539489865303, 0.19745896756649017, -0.3720111846923828, -0.5088304281234741, -0.43582335114479065, -0.4012566804885864, -0.23525790870189667, -0.15230147540569305, -0.29605090618133545, -0.012182053178548813, -0.04435795173048973, -0.2157142013311386], [0.1431683897972107, 0.21514056622982025, 0.16159342229366302, -0.01716194488108158, -0.1316073089838028, -0.16871075332164764, 0.11425770819187164, -0.11072541028261185, -0.057762857526540756, -0.16652530431747437, -0.23120051622390747, -0.28232166171073914, -0.22184060513973236, 0.22603534162044525, -0.02958332560956478, -0.08188926428556442, -0.193986713886261, -0.2409251630306244, -0.09570369124412537, -0.0769939124584198, 0.16279681026935577, -0.12122092396020889, -0.04751915484666824, 0.010574402287602425, -0.2487100511789322, 0.02278134599328041, -0.22777801752090454, -0.045410770922899246, 0.19532595574855804, 0.009878323413431644, -0.0002520982816349715, -0.12828268110752106], [-0.22183792293071747, -0.15096387267112732, -0.19498667120933533, -0.163437619805336, -0.37711697816848755, -0.3588767349720001, -0.308067262172699, -0.22890609502792358, -0.5353947877883911, -0.35220977663993835, -0.37078285217285156, -0.14734841883182526, -0.3560872972011566, -0.06464839726686478, 0.19568262994289398, -0.005047137849032879, -0.13116388022899628, -0.32645121216773987, -0.3665720522403717, -0.254910409450531, -0.39462581276893616, 0.05541517958045006, -0.1782570630311966, -0.19947898387908936, -0.08854693174362183, -0.17757639288902283, -0.14475782215595245, 0.04109552875161171, -0.349557489156723, -0.2663496732711792, -0.18678444623947144, -0.24022176861763]]