[[0.006829844322055578, -0.25713324546813965, -0.20268504321575165, 0.059795234352350235, -0.10858778655529022, -0.4718512296676636, 0.1266545206308365, -0.45919397473335266, 0.1801912486553192, -0.18866237998008728, 0.12237095832824707, -0.03251964598894119, -0.1711897850036621, -0.09346109628677368, -0.1965567022562027, 0.1652909219264984, 0.1105789840221405, -0.1339312046766281, -0.3855665624141693, 0.09257891774177551, -0.08580350875854492, -0.48391929268836975, -0.015107261948287487, -0.23241807520389557, -0.11421036720275879, 0.08911128342151642, -0.10505084693431854, 0.2051989585161209, -0.15338437259197235, -0.13866952061653137, 0.054251208901405334, -0.11550861597061157], [0.1258082538843155, -0.06809770315885544, 0.195334330201149, 0.02381245233118534, 0.1941152811050415, 0.09099060297012329, -0.1445368528366089, -0.03188255429267883, -0.035964466631412506, -0.061281874775886536, -0.09092742204666138, -0.07172899693250656, 0.18820720911026, 0.0596078597009182, 0.03692851588129997, -0.08423902839422226, -0.25213029980659485, 0.009890354238450527, -0.15701796114444733, -0.24074414372444153, 0.11328784376382828, -0.03905908018350601, -0.0779343843460083, -0.1071932315826416, -0.017207404598593712, -0.07496766000986099, 0.046234045177698135, 0.06056159734725952, -0.04667685925960541, 0.018494706600904465, -0.001984504982829094, -0.13094604015350342], [0.0166634414345026, -0.07626088708639145, 0.02074468322098255, -0.12890098989009857, -0.06908368319272995, -0.21895532310009003, -0.0803024098277092, -0.1256556510925293, -0.14453260600566864, 0.053277548402547836, -0.08414190262556076, 0.021938864141702652, -0.058743055909872055, -0.03328178822994232, 0.11029817163944244, -0.02234622649848461, -0.00927686132490635, 0.1992167979478836, -0.05521337315440178, -0.023480979725718498, -0.013824635185301304, -0.157791867852211, -0.060327306389808655, -0.16777323186397552, 0.0008240888128057122, -0.14186979830265045, -0.0732242614030838, -0.15653406083583832, -0.007208452560007572, -0.014799573458731174, 0.028088627383112907, -0.02074991539120674], [0.09554224461317062, -0.0603744275867939, 0.12370533496141434, -0.11653851717710495, 0.005994395352900028, -0.20261500775814056, -0.04985113814473152, -0.1982925683259964, 0.08905008435249329, -0.3827653229236603, 0.2127409726381302, 0.11020650714635849, -0.13836592435836792, 0.06191971153020859, 0.019202759489417076, -0.07432882487773895, -0.29618021845817566, -0.45118841528892517, -0.24743591248989105, -0.23109078407287598, -0.15511909127235413, 0.03994029387831688, -0.20767809450626373, -0.49154752492904663, -0.3083762228488922, -0.08401934057474136, -0.2611809968948364, -0.1079770028591156, -0.06270007789134979, -0.38604050874710083, -0.09304257482290268, -0.02699553221464157], [-0.16718241572380066, -0.3401670753955841, -0.34157595038414, -0.24171346426010132, -0.2585015892982483, -0.35293304920196533, -0.014539835974574089, -0.4365675151348114, -0.17180250585079193, -0.28325018286705017, -0.2215782105922699, -0.2813592255115509, -0.13282231986522675, 0.05119912326335907, 0.22027230262756348, -0.25115662813186646, -0.1894282102584839, -0.23657430708408356, -0.36345645785331726, -0.5737074017524719, 0.04865682125091553, -0.05364950746297836, -0.2588009536266327, -0.16373230516910553, -0.059703078120946884, -0.3942704200744629, -0.024570954963564873, -0.2819135785102844, -0.2406834363937378, -0.28071242570877075, -0.35161495208740234, -0.2181367129087448], [0.255755752325058, 0.0719173401594162, -0.08321958780288696, 0.11324959248304367, 0.06491991132497787, 0.14021767675876617, -0.13150906562805176, 0.10162241756916046, -0.15413765609264374, -0.1567399799823761, 0.06545627862215042, -0.17828369140625, -0.09291544556617737, 0.06670241057872772, -0.11639224737882614, -0.061152372509241104, -0.13866491615772247, -0.1254124939441681, 0.11037887632846832, -0.050961561501026154, 0.0635167732834816, -0.1360754668712616, 0.015580417588353157, -0.2303861826658249, 0.10300073772668839, 0.0037062589544802904, 0.058351244777441025, -0.01265743374824524, -0.13603723049163818, -0.27482447028160095, -0.0883510559797287, -0.11794985830783844], [-0.026875769719481468, -0.30390068888664246, -0.11376100778579712, -0.11073113232851028, 0.027362296357750893, 0.30880919098854065, -0.17361900210380554, 0.08760841935873032, -0.14032511413097382, 0.19400478899478912, -0.307839572429657, -0.0106220543384552, 0.09261684864759445, -0.00961393304169178, 0.10885459184646606, -0.027523335069417953, -0.2611529231071472, -0.05691148713231087, -0.2293645739555359, -0.1291620135307312, -0.14156857132911682, -0.02483811229467392, -0.05526402220129967, -0.09623320400714874, 0.08238279074430466, -0.10961505025625229, -0.04031340405344963, -0.09911394864320755, -0.21463963389396667, -0.2265775054693222, -0.16524352133274078, -0.11064301431179047], [0.05223938450217247, 0.16559842228889465, -0.31691500544548035, -0.4112688899040222, -0.17691050469875336, 0.09433931112289429, -0.2424163818359375, -0.2498517632484436, 0.10290168225765228, 0.25335490703582764, 0.045224424451589584, -0.020871110260486603, -0.3053915798664093, 0.08283145725727081, -0.07500375062227249, -0.15509121119976044, -0.020612917840480804, -0.16072922945022583, 0.02352840080857277, -0.14855968952178955, -0.17355354130268097, -0.14424023032188416, -0.5726054310798645, -0.39376264810562134, 0.07794149219989777, -0.5172401666641235, -0.2575324475765228, -0.37441015243530273, -0.2823389172554016, -0.6488633155822754, -0.3582138121128082, -0.12513405084609985], [-0.1537853628396988, -0.11103799194097519, -0.0808747336268425, -0.1425233781337738, 0.30279892683029175, 0.21602654457092285, -0.20544245839118958, -0.15566395223140717, 0.245087668299675, 0.12518496811389923, -0.058988843113183975, -0.07253262400627136, -0.0848269984126091, -0.17583999037742615, -0.2929067313671112, -0.10677079111337662, -0.0008735908195376396, -0.17183376848697662, -0.11939225345849991, -0.6360998749732971, -0.15402279794216156, 0.15231411159038544, -0.13051599264144897, -0.07625854015350342, 0.04042808338999748, -0.7565228939056396, -0.05973426625132561, -0.16961432993412018, -0.2204863429069519, -0.7279847264289856, -0.1339535415172577, -0.1718946099281311], [-0.3528464138507843, -0.13213448226451874, -0.34942641854286194, 0.035277027636766434, 0.014172528870403767, 0.06906261295080185, -0.13311877846717834, -0.06184520944952965, -0.10080597549676895, -0.06626870483160019, -0.022427396848797798, -0.36913251876831055, -0.2435837686061859, -0.5949602723121643, -0.13840197026729584, -0.325927734375, 0.07648400962352753, 0.13218338787555695, -0.1685333251953125, 0.02240467071533203, -0.03462500497698784, -0.14580118656158447, 0.13433384895324707, 0.12597617506980896, 0.021114632487297058, -0.5194430351257324, -0.26418495178222656, 0.14265571534633636, -0.25254693627357483, -0.11626315116882324, -0.1084337905049324, -0.3207825720310211], [-0.037821341305971146, -0.04087160527706146, 0.09117384999990463, 0.2503161132335663, -0.16817770898342133, -0.14543388783931732, -0.27024081349372864, 0.05272825062274933, -0.3110726773738861, 0.028237853199243546, -0.0020917472429573536, -0.04372934624552727, -0.22264273464679718, -0.2766285538673401, 0.1950749009847641, 0.11650411784648895, -0.506956934928894, 0.17616884410381317, -0.10113894939422607, -0.09977997094392776, -0.02498604916036129, -0.11046333611011505, 0.09473337978124619, 0.09866279363632202, -0.023310014978051186, -0.36630716919898987, -0.19765324890613556, -0.08575022220611572, -0.14808429777622223, -0.05953896790742874, -0.07707513123750687, -0.20561757683753967], [-0.2151898443698883, 0.18072094023227692, 0.22505302727222443, 0.09183531254529953, -0.05517964065074921, 0.11057142913341522, -0.08539238572120667, -0.09713786840438843, -0.06750933080911636, 0.06318638473749161, -0.0589832179248333, -0.038292691111564636, -0.18824544548988342, -0.027500832453370094, 0.08220597356557846, -0.1781693398952484, -0.23825708031654358, -0.03532564640045166, 0.050224777311086655, -0.02275730110704899, -0.0826629251241684, -0.0882863700389862, -0.02164274826645851, -0.18393927812576294, -0.2752087414264679, -0.2575438320636749, -0.13264822959899902, -0.02702348120510578, 0.08557555079460144, -0.13214537501335144, 0.016143284738063812, -0.021936729550361633], [-0.004042947199195623, -0.04788273200392723, 0.12442490458488464, 0.1394399106502533, 0.15304253995418549, 0.2048889696598053, -0.39842715859413147, 0.22187946736812592, -0.20183537900447845, 0.04592285677790642, -0.2770877182483673, -0.128027081489563, -0.19180144369602203, -0.18495099246501923, -0.18023183941841125, -0.3765232563018799, -0.22225919365882874, -0.2363114207983017, 0.009946197271347046, 0.01855449564754963, 0.012758820317685604, 0.18070735037326813, -0.21186254918575287, -0.14522668719291687, -0.1443634331226349, -0.02904866263270378, -0.09885125607252121, 0.10831912606954575, -0.12678998708724976, -0.14275255799293518, -0.19462421536445618, -0.1640845090150833], [-0.12176590412855148, 0.01132139004766941, 0.11319257318973541, 0.01494091097265482, 0.19527103006839752, 0.07713107764720917, -0.046784818172454834, 0.07991568744182587, 0.04799984395503998, -0.219523087143898, 0.05553906783461571, -0.03163272887468338, 0.11919689923524857, 0.1567688137292862, 0.0549306645989418, -0.08202264457941055, -0.24372528493404388, -0.036986179649829865, -0.18216466903686523, -0.017061570659279823, 0.1383650153875351, -0.0342288538813591, -0.12174421548843384, 0.018023915588855743, -0.08078307658433914, -0.21641655266284943, -0.06676211208105087, -0.029686858877539635, 0.09220273792743683, 0.08221325278282166, 0.023784833028912544, -0.07880477607250214], [-0.07784751802682877, 0.10229311883449554, -0.34997186064720154, -0.06524603068828583, -0.3386816084384918, -0.4500383734703064, 0.15903539955615997, -0.33085283637046814, -0.018042825162410736, -0.21468044817447662, -0.346529483795166, -0.0058005498722195625, -0.03474578633904457, -0.09947943687438965, -0.2875579297542572, -0.2867777943611145, -0.036108411848545074, -0.09747667610645294, -0.4591429531574249, -0.01001473143696785, 0.03878943994641304, -0.24488458037376404, -0.29640477895736694, -0.26394781470298767, -0.29943516850471497, 0.03786550462245941, -0.121944859623909, -0.3226383924484253, -0.18842795491218567, -0.26711004972457886, 0.012221910990774632, 0.004311577416956425], [-0.2830210030078888, -0.00878254696726799, 0.15073838829994202, -0.017024695873260498, -0.17925192415714264, -0.28658920526504517, 0.2412388026714325, 0.21712040901184082, -0.009979874826967716, -0.2306174486875534, -0.1857064664363861, -0.23309174180030823, 0.21714411675930023, 0.11622163653373718, -0.1112096831202507, 0.1599094420671463, -0.0779128149151802, -0.1685887724161148, -0.39793339371681213, 0.12347473204135895, 0.03253023326396942, -0.468216210603714, -0.36513838171958923, 0.1434323489665985, -0.2216254472732544, -0.0863027572631836, -0.16581928730010986, -0.27920302748680115, -0.16482952237129211, -0.05785277113318443, -0.24533210694789886, 2.1247993572615087e-05], [0.05280425027012825, 0.0644749328494072, 0.007200906984508038, 0.07835575938224792, 0.05505726486444473, -0.06928318738937378, -0.038848455995321274, 0.13062945008277893, -0.24306543171405792, -0.07615157961845398, -0.5086132287979126, -0.3873598277568817, -0.0386330671608448, -0.1918119192123413, 0.06014354154467583, -0.23995399475097656, -0.08638222515583038, -0.25667721033096313, -0.3466973304748535, -0.1682087481021881, -0.20909009873867035, -0.19209221005439758, -0.42402422428131104, -0.3056321442127228, -0.011073247529566288, -0.16047300398349762, -0.14334554970264435, 0.16225798428058624, 0.0733163058757782, -0.21698473393917084, -0.5045314431190491, -0.26360079646110535], [-0.33867141604423523, -0.17833653092384338, -0.07493503391742706, 0.21949142217636108, -0.26745694875717163, -0.051673587411642075, -0.06180549040436745, -0.1996360868215561, -0.031794555485248566, -0.13416384160518646, 0.1055690199136734, -0.05707694962620735, 0.18517014384269714, 0.26935818791389465, -0.06378648430109024, -0.3120402693748474, -0.4095023572444916, -0.11286822706460953, -0.14946651458740234, 0.01818438246846199, 0.0647636204957962, -0.19756804406642914, -0.3457944095134735, -0.29112374782562256, -0.034009646624326706, 0.0412619411945343, -0.18554610013961792, -0.5701881051063538, -0.08184956014156342, -0.008636201731860638, -0.20938196778297424, -0.14077764749526978], [-0.06428613513708115, -0.25979897379875183, -0.03803106024861336, -0.3880101442337036, 0.035832781344652176, -0.11263424158096313, -0.2503701448440552, 0.17177586257457733, 0.16749802231788635, 0.1282879114151001, -0.47334179282188416, -0.03298312425613403, -0.1796991527080536, -0.19247907400131226, -0.1705995798110962, -0.2616044580936432, -0.5035585165023804, -0.013724174350500107, -0.20786714553833008, -0.25583532452583313, -0.22515355050563812, -0.020347384735941887, -0.021717097610235214, 0.171940878033638, -0.1573585420846939, -0.11920344084501266, -0.046993330121040344, -0.37739917635917664, -0.35173678398132324, -0.03504300117492676, -0.26164084672927856, -0.09900333732366562], [0.03145600110292435, -0.04560190439224243, -0.09645282477140427, -0.028418177738785744, -0.141109436750412, 0.0503501333296299, -0.06196417286992073, -0.1900443732738495, 0.01369769312441349, 0.07730107009410858, -0.22119206190109253, 0.019921518862247467, 0.0037278039380908012, 0.005370597820729017, -0.03800134360790253, -0.0783412754535675, -0.1397368162870407, 0.0005313390865921974, 0.00639723427593708, -0.17130643129348755, 0.04413403943181038, -0.14760999381542206, -0.08637645840644836, -0.14519138634204865, -0.09376253187656403, 0.007002281956374645, -0.06717395782470703, -0.3397637903690338, 0.01823921874165535, 0.06389420479536057, -0.1621217578649521, -0.15414941310882568], [0.07278823852539062, -0.18389983475208282, 0.13413897156715393, -0.07119186222553253, 0.1800813376903534, -0.07924138754606247, -0.25109636783599854, -0.050281818956136703, -0.015488194301724434, -0.2990550994873047, 0.005660266149789095, 0.0645877942442894, -0.1354183703660965, -0.05480998754501343, -0.26442018151283264, 0.1140463650226593, -0.06512115895748138, 0.15040895342826843, 0.12613819539546967, 0.15197888016700745, 0.05752015858888626, 0.22899530827999115, -0.19229882955551147, -0.10703160613775253, -0.0674850344657898, 0.05377086624503136, -0.23718734085559845, -0.014008509926497936, 0.09099218249320984, 0.02334052138030529, -0.29613304138183594, -0.1779639720916748], [-0.045256782323122025, -0.06812422722578049, 0.014571938663721085, -0.13215556740760803, -0.0682762861251831, -0.10242313146591187, -0.048374924808740616, -0.059180621057748795, -0.05752972885966301, -0.0032202114816755056, -0.22951534390449524, -0.04710020124912262, -0.172454372048378, -0.28043293952941895, 0.17295679450035095, 0.16532127559185028, 0.0325983501970768, 0.10016210377216339, 0.04323285445570946, -0.052543044090270996, 0.10193095356225967, -0.07762058079242706, -0.2946833372116089, 0.04911801964044571, 0.08026256412267685, 0.07424844801425934, -0.18758708238601685, 0.07305584847927094, 0.1658255159854889, -0.07257726788520813, 0.0639321357011795, -0.2038675993680954], [0.11723383516073227, 0.05954613536596298, -0.096154123544693, 0.29371005296707153, -0.11560864001512527, 0.1042526438832283, -0.3725126385688782, -0.1189379021525383, -0.09230951219797134, 0.17655353248119354, 0.22876965999603271, 0.12493180483579636, 0.09269760549068451, 0.001071358099579811, -0.1522209495306015, -0.11008478701114655, -0.3007262349128723, -0.12239808589220047, -0.343894898891449, -0.04770419001579285, -0.5771037340164185, -0.06889183819293976, -0.2140093743801117, -0.11429552733898163, 0.17673632502555847, 0.020274663344025612, -0.08223852515220642, -0.16828909516334534, -0.13618949055671692, -0.1706487089395523, 0.024874726310372353, -0.017694715410470963], [-0.06762021780014038, 0.14190885424613953, 0.05702390894293785, -0.165907621383667, -0.33651870489120483, -0.09818069636821747, -0.07764966040849686, 0.08063235133886337, 0.17648708820343018, 0.0836324617266655, -0.1697017252445221, -0.22371523082256317, -0.19405296444892883, -0.46806037425994873, -0.21571558713912964, -0.04020744934678078, -0.01673661731183529, 0.22455869615077972, -0.10875259339809418, -0.09425200521945953, -0.27199435234069824, 0.03250924125313759, -0.009369333274662495, -0.024433214217424393, -0.0002743466757237911, -0.46548011898994446, -0.2046567052602768, 0.11499707400798798, 0.027607843279838562, -0.04703652486205101, -0.4401171803474426, -0.2613338232040405], [-0.1995408684015274, 0.14888639748096466, -0.09786784648895264, -0.2669210135936737, -0.09680595993995667, -0.051724474877119064, -0.08277926594018936, 0.05768965929746628, 0.05537349730730057, 0.22977817058563232, -0.12469515204429626, 0.0172678604722023, -0.08880463242530823, -0.15383805334568024, -0.07041479647159576, -0.11738558858633041, -0.09753052145242691, -0.09313272684812546, 0.11971938610076904, -0.14781364798545837, -0.14055106043815613, -0.24897177517414093, -0.214167058467865, 0.07105635851621628, 0.1154324859380722, -0.12112578749656677, -0.003795769065618515, -0.26444879174232483, -0.19621054828166962, -0.11292051523923874, -0.1862412393093109, -0.07149806618690491], [-0.2200116366147995, -0.18528270721435547, -0.3154444694519043, -0.22605571150779724, -0.17525094747543335, -0.1981414556503296, -0.10450226068496704, -0.17278440296649933, -0.06804883480072021, -0.1763896942138672, 0.12721200287342072, 0.009236078709363937, 0.09960032254457474, -0.21248668432235718, 0.19334638118743896, 0.09115168452262878, 0.07007507979869843, -0.11880473047494888, -0.17202697694301605, 0.15382559597492218, 0.09102223068475723, -0.01339044887572527, -0.17604373395442963, -0.05469229444861412, -0.12112390249967575, -0.12472352385520935, -0.2249733805656433, -0.07584931701421738, -0.08136553317308426, -0.10991222411394119, -0.22890616953372955, -0.11028098315000534], [0.1018936038017273, -0.0031231348402798176, 0.1708410084247589, 0.3507643938064575, -0.08609318733215332, 0.12233462184667587, -0.23990361392498016, -0.10475555062294006, -0.29117947816848755, 0.12892258167266846, -0.3304363191127777, -0.15567341446876526, -0.11814354360103607, 0.08964712917804718, 0.19212165474891663, -0.11243666708469391, -0.39869749546051025, -0.10301260650157928, -0.22381055355072021, -0.39664748311042786, -0.31190216541290283, -0.12241197377443314, -0.1711287945508957, -0.4654802680015564, 0.11172167956829071, -0.023984355852007866, -0.002758293878287077, -0.04982051998376846, 0.027409395202994347, -0.22311221063137054, -0.23328910768032074, -0.16093246638774872], [0.059676580131053925, -0.07573778182268143, -0.038895364850759506, -0.1415470391511917, -0.22695618867874146, -0.08130251616239548, 0.04871315881609917, -0.16856864094734192, -0.0259761530905962, 0.17539800703525543, -0.3557516634464264, 0.12889228761196136, -0.22644135355949402, -0.07331584393978119, -0.12491109222173691, 0.008153456263244152, -0.23124510049819946, -0.19297701120376587, 0.14388732612133026, -0.23881064355373383, -0.1096768006682396, 0.012818070128560066, 0.11048033088445663, -0.15767604112625122, -0.20674259960651398, -0.12387154996395111, -0.013623997569084167, 0.015021249651908875, -0.03476180136203766, -0.1938130408525467, -0.08259619027376175, -0.008375297300517559], [-0.20871205627918243, 0.07249578088521957, 0.07641257345676422, -0.19545210897922516, 0.0871448740363121, -0.016753051429986954, 0.12043976038694382, -0.12125569581985474, 0.12428813427686691, 0.1353590190410614, -0.20806117355823517, -0.1786900907754898, -0.35037046670913696, 0.04545656219124794, -0.14396649599075317, -0.43556344509124756, 0.07423554360866547, 0.021000219509005547, 0.18620213866233826, 0.018586259335279465, 0.06536826491355896, -0.43718743324279785, -0.09299053251743317, -0.0694151222705841, -0.24362796545028687, -0.2222040295600891, -0.21618759632110596, -0.20326440036296844, -0.19530509412288666, 0.17956368625164032, -0.2502600848674774, -0.24090608954429626], [0.03980306163430214, 0.22361890971660614, -0.0013510924763977528, -0.20887026190757751, -0.23304881155490875, -0.4308795928955078, 0.014864812605082989, -0.28858789801597595, 0.18037213385105133, -0.12779000401496887, -0.3809644877910614, -0.21270610392093658, -0.3120679259300232, 0.03392750769853592, 0.04750287905335426, -0.01827382855117321, 0.08097779750823975, -0.17383278906345367, -0.2013537585735321, -0.4032424986362457, -0.1555330455303192, -0.45588281750679016, -0.1330622136592865, -0.24353694915771484, -0.2532373368740082, -0.3043977618217468, 0.09532040357589722, 0.1841987669467926, -0.09273222088813782, -0.17846716940402985, -0.1416054666042328, -0.15223316848278046], [0.07373340427875519, 0.029070517048239708, -0.08127916604280472, -0.21781383454799652, 0.31028005480766296, 0.04356076195836067, 0.17614558339118958, -0.12868167459964752, 0.34338265657424927, 0.17219215631484985, -0.060872793197631836, 0.03845681622624397, -0.2409956157207489, -0.0495520681142807, -0.1628294438123703, -0.017146822065114975, -0.08604234457015991, -0.21116995811462402, -0.006663905922323465, -0.6125030517578125, -0.19763490557670593, 0.07521680742502213, 0.05704611912369728, -0.12185164541006088, -0.21154449880123138, -0.3126443922519684, 0.040585920214653015, -0.01625034771859646, -0.3360546827316284, -0.24583061039447784, -0.22018763422966003, -0.039586056023836136], [-0.008197854273021221, -0.010368213057518005, 0.0757397934794426, 0.05591675639152527, 0.29499590396881104, 0.15452837944030762, -0.07975033670663834, 0.06506422162055969, -0.10868380963802338, -0.08544571697711945, 0.08851057291030884, 0.16412630677223206, -0.118830606341362, 0.001076909014955163, 0.03677831217646599, -0.16039103269577026, -0.07885589450597763, -0.028490759432315826, -0.0158070158213377, -0.07359053939580917, -0.0636504739522934, -0.08129417896270752, 0.09447269886732101, -0.15821275115013123, -0.2767511308193207, -0.12061205506324768, -0.08956709504127502, -0.23749427497386932, 0.01341342180967331, -0.18998757004737854, -0.007502910681068897, -0.032703083008527756], [-0.037677738815546036, 0.03765008971095085, 0.09809915721416473, 0.15017858147621155, -0.013306191191077232, 0.05912822484970093, 0.0903063416481018, -0.14114835858345032, -0.036953140050172806, -0.08917760848999023, 0.20752088725566864, -0.01907978020608425, -0.02246345765888691, -0.012835251167416573, -0.10495700687170029, 0.07890134304761887, -0.21477478742599487, -0.14970429241657257, 0.13667316734790802, 0.11445508152246475, -0.036943912506103516, -0.2206418812274933, -0.06849946826696396, -0.003294355468824506, -0.14644232392311096, -0.11093014478683472, -0.018865054473280907, 0.08316437900066376, -0.07909830659627914, -0.1105399951338768, 0.07945864647626877, -0.23091678321361542], [0.1308494359254837, -0.00489340303465724, 0.13073207437992096, -0.17128485441207886, 0.027310743927955627, -0.1155923530459404, -0.20814333856105804, -0.06440650671720505, 0.090184785425663, -0.09339185804128647, 0.1486671268939972, 0.14922404289245605, -0.00801460724323988, -0.09925366193056107, -0.19694101810455322, -0.05803645774722099, 0.2910918593406677, -0.1096453070640564, 0.30885982513427734, -0.24810908734798431, 0.030821720138192177, -0.45045164227485657, -0.05172169208526611, -0.21870362758636475, -0.1102006807923317, -0.1286168247461319, -0.16470295190811157, -0.29058972001075745, -0.1812378615140915, 0.14124655723571777, -0.011926542967557907, -0.21306560933589935], [-0.31575387716293335, -0.07171216607093811, 0.06551553308963776, 0.010765273123979568, -0.0792839452624321, -0.0493779331445694, 0.1304817795753479, -0.27834126353263855, -0.286983460187912, -0.06720972061157227, -0.39766839146614075, -0.03438785299658775, 0.10298027098178864, 0.1683359295129776, -0.15556126832962036, -0.3127606511116028, 0.055607762187719345, 0.007534753531217575, -0.10753253847360611, -0.0660305917263031, -0.3301020562648773, -0.2815919518470764, 0.06509741395711899, -0.055900268256664276, -0.10612541437149048, -0.31290382146835327, -0.1980978399515152, -0.26799046993255615, -0.1518339067697525, -0.3836374878883362, -0.07566913217306137, 0.029298346489667892], [0.1961308717727661, -0.16417069733142853, 0.05252940580248833, -0.17729416489601135, 0.17603270709514618, -0.3073026239871979, -0.2149023562669754, 0.029246000573039055, -0.2171792984008789, -0.35049495100975037, -0.2946373224258423, -0.23154239356517792, -0.13673408329486847, 0.13131336867809296, 0.007663598749786615, -0.15078571438789368, -0.20074698328971863, -0.23964236676692963, -0.037990033626556396, 0.017002612352371216, 0.2254927009344101, -0.11333770304918289, -0.057449717074632645, -0.3496852517127991, -0.2785176634788513, 0.050890300422906876, -0.24841611087322235, -0.2142835259437561, 0.00524180568754673, 0.0036897570826113224, -0.12821292877197266, -0.0901704803109169], [0.16460652649402618, 0.07157150655984879, 0.1280147284269333, 0.07462602853775024, -0.03544755280017853, 0.032116424292325974, 0.06872386485338211, 0.03971272334456444, 0.004674029536545277, 0.1745200902223587, 0.019338997080922127, -0.021380998194217682, -0.04573268070816994, -0.0584355965256691, -0.0807204395532608, -0.17754796147346497, -0.18343983590602875, -0.042898569256067276, 0.01978687010705471, -0.08988219499588013, -0.07219425588846207, -0.07957682013511658, 0.1617601066827774, 0.0511508472263813, -0.005112376995384693, -0.08171917498111725, -0.09914465993642807, -0.17560136318206787, -0.04918787628412247, -0.19578559696674347, -0.16038545966148376, 0.07521816343069077], [0.09295853227376938, 0.3520556390285492, -0.11852306127548218, -0.1679796725511551, -0.21252256631851196, -0.33186304569244385, -0.09877371788024902, -0.1897352933883667, -0.2560616433620453, -0.028806695714592934, -0.2734939157962799, 0.18034738302230835, 0.006464456208050251, -0.20130881667137146, -0.005804375279694796, -0.10434924811124802, 0.09538652002811432, -0.34194496273994446, -0.06566695868968964, -0.5711663961410522, -0.4046283960342407, -0.3795556128025055, 0.11143165826797485, -0.24235539138317108, -0.09360072016716003, -0.18546538054943085, -0.04190400242805481, 0.004418137948960066, -0.04414359852671623, -0.30022746324539185, -0.24084268510341644, -0.14389827847480774], [-0.00417144363746047, -0.10094624012708664, -0.4417036175727844, 0.09558350592851639, -0.22753407061100006, -0.316205233335495, -0.03948618099093437, -0.4830023944377899, -0.015989383682608604, 0.1626131385564804, 0.10319605469703674, 0.04492007941007614, -0.10547558963298798, 0.0473007932305336, -0.08920978754758835, -0.059516791254282, -0.131628155708313, -0.03398899734020233, -0.24953338503837585, 0.1323368102312088, -0.058900851756334305, -0.2753603756427765, -0.1205156147480011, -0.14652776718139648, -0.384928435087204, -0.05656484141945839, -0.21858899295330048, -0.6229100227355957, 0.18895334005355835, 0.06554602086544037, 0.164404034614563, -0.2675289809703827], [0.03486775606870651, -0.2670649588108063, -0.34371787309646606, 0.009570389986038208, -0.18471258878707886, 0.05295659974217415, -0.23099948465824127, 0.02064666710793972, -0.2351057380437851, -0.17532730102539062, -0.11654053628444672, -0.2722439169883728, 0.11638011783361435, -0.03309836611151695, -0.317301481962204, -0.47739821672439575, -0.3467745780944824, -0.361575186252594, -0.04235735908150673, 0.12414419651031494, 0.07375121116638184, -0.2842887341976166, -0.22947801649570465, -0.5327176451683044, 0.00036197531153447926, -0.08774241805076599, -0.16354085505008698, -0.19483643770217896, 0.1922602653503418, 0.10123509168624878, -0.2624179422855377, -0.08300229907035828], [0.0030066233593970537, -0.13211797177791595, -0.07655759155750275, -0.15887731313705444, -0.1968861222267151, -0.19393186271190643, -0.32536450028419495, -0.19624073803424835, -0.1429203599691391, -0.05119749903678894, -0.15066464245319366, 0.04220736399292946, 0.016318049281835556, -0.12119100242853165, -0.17307142913341522, 0.10416460037231445, 0.08266358822584152, -0.13231161236763, 0.22218362987041473, -0.3030174970626831, -0.24447739124298096, -0.18920113146305084, -0.18918795883655548, 0.16078932583332062, 0.021815910935401917, 0.13443298637866974, -0.10917624831199646, -0.14144529402256012, -0.11527879536151886, 0.028945622965693474, -0.08868144452571869, -0.03106667473912239], [0.20435412228107452, 0.044074080884456635, -0.10909441858530045, -0.018793687224388123, 0.05792880430817604, -0.16659843921661377, 0.17023682594299316, -0.17036622762680054, -0.08951129019260406, -0.12578579783439636, -0.08392689377069473, -0.18509531021118164, 0.0859581008553505, 0.029397230595350266, 0.09931588172912598, -0.025000013411045074, -0.1867055594921112, -0.23595167696475983, -0.07662950456142426, 0.0026192995719611645, 0.0182650126516819, 0.07740125060081482, -0.08744348585605621, -0.047300588339567184, -0.1588726043701172, -0.17987380921840668, -0.11917760968208313, 0.10472061485052109, -0.07684534043073654, 0.06923943758010864, -0.02101045474410057, -0.03451854735612869], [-0.38730767369270325, -0.03496024012565613, 0.10179483890533447, -0.07764667272567749, -0.15487264096736908, -0.15217064321041107, 0.10465700924396515, 0.027266843244433403, -0.29369425773620605, -0.020272843539714813, -0.3300274908542633, -0.03321247175335884, 0.13710236549377441, 0.20958124101161957, -0.03991888463497162, -0.01835027150809765, -0.06906084716320038, -0.093382827937603, -0.14453622698783875, -0.35294094681739807, -0.0023308321833610535, -0.3604452311992645, -0.190435990691185, -0.20754539966583252, -0.16088758409023285, -0.2017078399658203, -0.2258288413286209, -0.20457883179187775, -0.17458587884902954, -0.011519060470163822, -0.1381324827671051, 0.020203091204166412], [-0.35981065034866333, -0.047181837260723114, -0.21211998164653778, -0.10636663436889648, -0.11856171488761902, 0.09051386266946793, -0.1650940179824829, 0.12537047266960144, -0.43489333987236023, 0.09229601174592972, -0.34864237904548645, -0.2478323131799698, 0.16212032735347748, 0.020713476464152336, 0.07166444510221481, 0.04535256698727608, -0.15819276869297028, -0.13368573784828186, 0.20348647236824036, -0.04542919620871544, 0.012782073579728603, -0.31367751955986023, -0.14577646553516388, -0.12304303050041199, 0.25135597586631775, 0.03256792947649956, -0.17265503108501434, -0.011587707325816154, -0.016702823340892792, -0.18655073642730713, 0.00473906472325325, 0.028781261295080185], [0.1283416897058487, -0.2325729876756668, -0.22797521948814392, -0.32293900847435, -0.08451060950756073, -0.3218481242656708, 0.30638325214385986, -0.27997586131095886, 0.05227517709136009, -0.469381719827652, -0.29429399967193604, -0.38043609261512756, -0.23063457012176514, 0.08111821860074997, 0.10217791795730591, -0.1101737916469574, 0.22212159633636475, -0.16845771670341492, -0.30840158462524414, 0.02001904509961605, 0.1364390254020691, -0.19422094523906708, -0.2847375273704529, -0.23696285486221313, -0.24718692898750305, -0.2183067798614502, -0.1969689130783081, -0.471141517162323, 0.05580727010965347, 0.07273916900157928, -0.35282599925994873, -0.2672058045864105], [-0.04895596206188202, -0.10977283865213394, 0.07287263870239258, -0.31011471152305603, -0.1244523897767067, -0.28082266449928284, 0.20407716929912567, -0.2181922048330307, 0.10443074256181717, -0.013782068155705929, 0.15709421038627625, -0.006550025660544634, -0.16497473418712616, 0.10980097204446793, -0.1685248762369156, -0.11162119358778, 0.10069603472948074, 0.21248354017734528, -0.2853434085845947, -0.1954399198293686, 0.22162765264511108, -0.005468365736305714, -0.39551401138305664, -0.022637562826275826, -0.08456601202487946, -0.05224757641553879, -0.2431592494249344, -0.3844025135040283, -0.12375544011592865, 0.12167158722877502, -0.16039811074733734, -0.05390045419335365], [-0.1658923476934433, -0.12375790625810623, -0.1694975048303604, -0.1134742945432663, 0.12758749723434448, 0.059608157724142075, -0.02839827351272106, 0.05706583708524704, 0.13922542333602905, 0.019118493422865868, -0.48751336336135864, -0.1548173576593399, -0.013916261494159698, -0.3159872591495514, -0.10858724266290665, -0.23476342856884003, 0.116677425801754, -0.1295880377292633, 0.1640872210264206, 0.015529194846749306, -0.013312124647200108, 0.1562025099992752, 0.09935744106769562, 0.16246157884597778, -0.16183829307556152, -0.18863986432552338, -0.0895940437912941, 0.23480693995952606, -0.013709933497011662, -0.33631467819213867, -0.3438883423805237, 0.03695960342884064], [-0.2095043808221817, -0.12116489559412003, -0.20045599341392517, -0.21957147121429443, 0.06426732242107391, -0.11991956830024719, -0.07481477409601212, -0.18366558849811554, -0.30964964628219604, 0.031325601041316986, -0.17904305458068848, -0.05524791404604912, -0.1856229454278946, -0.08591774106025696, 0.027999160811305046, -0.40284463763237, -0.1179611012339592, -0.1757291704416275, -0.013042210601270199, 0.21769912540912628, 0.21135780215263367, -0.20471450686454773, 0.09707966446876526, -0.09977788478136063, -0.05412422493100166, -0.26438480615615845, -0.12373393774032593, -0.07004152983427048, -0.22642245888710022, 0.16337250173091888, -0.08601363748311996, -0.24539998173713684], [0.15334153175354004, 0.021262772381305695, 0.09822996705770493, 0.06515183299779892, -0.04618421569466591, 0.0791235864162445, 0.22158461809158325, -0.1251063495874405, -0.06859253346920013, 0.07471396774053574, -0.17700183391571045, -0.04709906503558159, -0.07248976826667786, 0.08702895790338516, 0.04323866590857506, 0.08099394291639328, 0.0740479975938797, -0.060268186032772064, -0.06826665252447128, -0.17365005612373352, -0.040643125772476196, -0.18827177584171295, 0.16026383638381958, -0.018284374848008156, -0.012550948187708855, -0.09556515514850616, 0.08445820957422256, -0.09121888875961304, 0.0032123420387506485, -0.068869948387146, -0.12004460394382477, -0.21224305033683777], [-0.11804042756557465, -0.0901595875620842, 0.2821192443370819, -0.03479878604412079, 0.2406366616487503, -0.06389949470758438, -0.02683202549815178, -0.13312818109989166, -0.24683383107185364, -0.08439088612794876, -0.48768988251686096, 0.05265076830983162, -0.213494673371315, -0.14313727617263794, 0.12845228612422943, 0.01228355523198843, -0.1625218689441681, -0.04890557378530502, 0.09785699844360352, -0.1917634755373001, 0.020294293761253357, 0.29197341203689575, -0.040547311305999756, -0.08391514420509338, -0.03818794712424278, -0.34446004033088684, -0.029815541580319405, -0.20758655667304993, 0.16317218542099, -0.11634653806686401, -0.21575909852981567, -0.11506349593400955], [0.13041867315769196, -0.11480677872896194, -0.039641547948122025, -0.2789563238620758, -0.3412264287471771, -0.09253404289484024, 0.2676839828491211, -0.3800372779369354, -0.3946910500526428, -0.3629612326622009, -0.3362277150154114, -0.18358908593654633, -0.040467213839292526, 0.14827841520309448, -0.18815691769123077, -0.12884323298931122, 0.23478391766548157, 0.2152000069618225, -0.24636657536029816, -0.3068668842315674, 0.10401749610900879, -0.10780614614486694, -0.06525029242038727, -0.16105666756629944, -0.1721356064081192, -0.5233427286148071, 0.09111422300338745, -0.2643446922302246, -0.055264025926589966, 0.14428572356700897, -0.10191605985164642, 0.10548114031553268], [-0.2445230484008789, -0.22493302822113037, -0.24652788043022156, -0.5941199660301208, -0.6120049357414246, -0.6254377961158752, -0.3357980251312256, -0.45358550548553467, -0.4181654453277588, -0.44088366627693176, -0.24164284765720367, 0.454203337430954, -0.4143050014972687, -0.4005638360977173, -0.16930720210075378, -0.353026807308197, -0.19212420284748077, -0.5991426706314087, -0.057054437696933746, -0.42153552174568176, -0.6727330684661865, -0.30946335196495056, -0.25697454810142517, -0.40475571155548096, -0.5665193200111389, -0.46970170736312866, -0.4038274884223938, -0.27018290758132935, -0.16763551533222198, -0.463042289018631, -0.20976762473583221, -0.45370790362358093], [-0.3539954423904419, 0.15357019007205963, 0.0034887087531387806, -0.27858880162239075, -0.06227390095591545, -0.21049806475639343, 0.004765891935676336, 0.22005827724933624, 0.04016445577144623, -0.23547519743442535, -0.3293416202068329, 0.09902074187994003, -0.10600940883159637, -0.042847707867622375, 0.03211980313062668, 0.05485201254487038, 0.1893199384212494, 0.12048180401325226, 0.12227396667003632, -0.12231813371181488, -0.2549484968185425, 0.06759514659643173, 0.012879271060228348, -0.27542176842689514, -0.0010390649549663067, -0.3675515353679657, -0.08218471705913544, -0.0320783294737339, -0.13417865335941315, -0.29219698905944824, -0.3504543900489807, -0.10582412034273148], [-0.14601467549800873, -0.3044581115245819, 0.2325955033302307, -0.057975586503744125, -0.1864892691373825, 0.03484567999839783, -0.318998783826828, -0.2968163788318634, -0.19032041728496552, 0.0621953159570694, -0.5707625150680542, 0.15629874169826508, -0.16933797299861908, -0.10371570289134979, 0.004978551063686609, -0.28676092624664307, -0.20520135760307312, 0.03684872016310692, -0.2591259777545929, -0.14049848914146423, -0.17141830921173096, -0.27018341422080994, -0.07081148028373718, -0.1277705729007721, -0.16729731857776642, -0.056635163724422455, -0.13033427298069, -0.5336208343505859, -0.24017882347106934, -0.09729430079460144, -0.35458534955978394, -0.28310540318489075], [0.09621359407901764, -0.010868221521377563, -0.21958939731121063, 0.2060239464044571, 0.031597800552845, -0.34191206097602844, -0.22795501351356506, -0.18484829366207123, -0.19695332646369934, -0.08296374976634979, 0.1943565309047699, -0.04346271976828575, 0.17072027921676636, 0.04464595019817352, -0.006556281819939613, 0.13114506006240845, -0.21693067252635956, -0.023910820484161377, -0.16195236146450043, -0.1705905944108963, -0.04971856623888016, -0.24593070149421692, -0.21990956366062164, -0.3358139991760254, 0.17927402257919312, 0.1551806926727295, -0.18569673597812653, -0.18957656621932983, -0.09061877429485321, -0.12161564826965332, 0.3212200105190277, -0.1613132804632187], [-0.2161601185798645, 0.012001119554042816, -0.044412221759557724, 0.00988070946186781, -0.12916280329227448, -0.22068969905376434, 0.04407620057463646, -0.08352845162153244, -0.057373203337192535, 0.1005631759762764, 0.07626116275787354, 0.018325679004192352, 0.06306827068328857, 0.0906454548239708, -0.08869566768407822, -0.19921784102916718, -0.03947852924466133, 0.11160095781087875, -0.1477566510438919, -0.1174551323056221, -0.23489896953105927, -0.2539084255695343, 0.05475569888949394, 0.03474801033735275, -0.22727607190608978, -0.05300154909491539, -0.1251370906829834, -0.2464596927165985, -0.2112799733877182, 0.1297447234392166, -0.15598739683628082, -0.028309816494584084], [-0.20795957744121552, -0.011628610081970692, -0.19782236218452454, -0.20230787992477417, -0.04543648287653923, 0.21934236586093903, -0.36950308084487915, -0.1818104088306427, -0.5864560008049011, -0.014510022476315498, -0.12718556821346283, 0.057212963700294495, -0.038001637905836105, -0.41572389006614685, 0.10469617694616318, -0.2252519726753235, -0.026654647663235664, 0.12055819481611252, 0.2262084186077118, 0.20410370826721191, 0.217283695936203, -0.24717207252979279, -0.2581903338432312, 0.007098736707121134, -0.22304965555667877, -0.09477604180574417, -0.0957445353269577, -0.0498865582048893, -0.374045193195343, 0.0008789788698777556, -0.24644917249679565, -0.1433691531419754], [-0.3018399178981781, -0.3489153981208801, 0.34727928042411804, -0.15131647884845734, -0.18277913331985474, -0.39903369545936584, 0.09716811776161194, -0.0954108014702797, -0.6156250238418579, -0.5723546743392944, -0.21170103549957275, -0.2043536901473999, 0.28928089141845703, 0.19633258879184723, -0.19902360439300537, -0.07488899677991867, -0.23557038605213165, -0.603295087814331, -0.4192603826522827, 0.0074442229233682156, -0.17943578958511353, -0.43379026651382446, -0.42358237504959106, -0.40642049908638, -0.38539594411849976, -0.5314310789108276, -0.16049546003341675, -0.5166415572166443, -0.3966275155544281, 0.2947860062122345, -0.35169920325279236, -0.18213486671447754], [0.11917316913604736, 0.09022339433431625, 0.12303303927183151, 0.05498301610350609, -0.07245506346225739, -0.16443638503551483, -0.1000577062368393, -0.27454185485839844, -0.28806743025779724, -0.25001057982444763, -0.2651877701282501, -0.054061248898506165, 0.24884046614170074, 0.19619905948638916, -0.004200889728963375, -0.47707265615463257, -0.2268836796283722, -0.37714332342147827, 0.03858209028840065, -0.35546836256980896, 0.2216336727142334, -0.1797279417514801, 0.09387810528278351, -0.20441041886806488, -0.22105608880519867, -0.24363599717617035, 0.053346313536167145, -0.08845771849155426, -0.14344055950641632, -0.010454169474542141, -0.09908083826303482, -0.07174725085496902], [-0.14769627153873444, 0.1973307728767395, -0.26978570222854614, -0.11355791985988617, -0.28731095790863037, -0.4339049756526947, 0.05367143452167511, -0.5419424772262573, -0.272464394569397, 0.16641366481781006, -0.2782328426837921, -0.11922291666269302, -0.4609496295452118, -0.2351202815771103, -0.25820982456207275, -0.33855754137039185, -0.05978318303823471, -0.18495336174964905, -0.10637310892343521, -0.06932488828897476, -0.3308790326118469, -0.4610995352268219, 0.1870039403438568, -0.14921079576015472, 0.0069554331712424755, -0.2988680601119995, -0.10007224231958389, -0.2683776021003723, -0.23901920020580292, -0.13049134612083435, 0.13659930229187012, -0.1080375537276268], [0.012876499444246292, -0.0045311590656638145, -0.09211629629135132, 0.05024450272321701, 0.10895528644323349, -0.03963017091155052, 0.053682271391153336, 0.06896605342626572, -0.025809375569224358, 0.11400773376226425, 0.012588267214596272, -0.013388572260737419, 0.07930882275104523, -0.06069839000701904, 0.12024970352649689, -0.00837425421923399, -0.026278715580701828, -0.0380258746445179, -0.06950903683900833, -0.014033769257366657, -0.007062611635774374, 0.05736149847507477, -0.24156725406646729, 0.021609582006931305, 0.048159994184970856, 0.10508933663368225, -0.06840010732412338, -0.15702126920223236, 0.009889653883874416, -0.13264785706996918, -0.10798042267560959, 0.001594951725564897], [-0.0633053407073021, 0.03197314962744713, 0.16387595236301422, -0.038863856345415115, -0.18623940646648407, -0.12081193923950195, -0.12424705922603607, 0.01807854324579239, -0.26175403594970703, -0.053984448313713074, 0.08383771777153015, -0.02847146987915039, -0.47312256693840027, -0.2570195496082306, 0.08939387649297714, 0.0801675096154213, -0.21517325937747955, 0.1480528861284256, -0.3754703104496002, -0.2708738446235657, -0.26780301332473755, 0.11622875928878784, -0.09010912477970123, -0.07353849709033966, -0.24945376813411713, -0.2915232479572296, -0.2811325490474701, 0.09455861151218414, 0.2013414055109024, 0.029319288209080696, -0.23368409276008606, -0.18417681753635406], [-0.16867032647132874, 0.1985253244638443, -0.013303226791322231, -0.008688094094395638, 0.061217766255140305, 0.027100350707769394, 0.09795066714286804, -0.046428337693214417, -0.07765059918165207, 0.04535217583179474, 0.012306436896324158, 0.07310106605291367, 0.19435738027095795, -0.1624201089143753, 0.09478402137756348, -0.11167940497398376, -0.11059456318616867, -0.0008309748372994363, -0.05612217262387276, -0.13834568858146667, 0.049158960580825806, -0.0484175868332386, -0.0766969844698906, 0.04416310787200928, -0.07705190777778625, -0.0749543160200119, -0.10413278639316559, -0.08136850595474243, 0.0254219938069582, -0.14108702540397644, 0.06023566052317619, -0.16062678396701813], [-0.03091704659163952, -0.4692804515361786, -0.243657186627388, 0.07712298631668091, 0.018722426146268845, 0.1543387770652771, -0.14621569216251373, -0.13978561758995056, -0.3749850392341614, 0.07751207053661346, 0.1071176826953888, -0.017287123948335648, -0.12954114377498627, -0.18322020769119263, 0.022618547081947327, -0.41670894622802734, -0.329165518283844, 0.012825120240449905, -0.015152093023061752, -0.14764852821826935, -0.40110448002815247, -0.28474369645118713, -0.14138253033161163, 0.20415613055229187, 0.16115674376487732, -0.07662661373615265, -0.07459597289562225, -0.18129774928092957, -0.22889262437820435, 0.04030393809080124, 0.053942810744047165, -0.14336276054382324], [-0.02736014872789383, 0.03519216179847717, -0.40545400977134705, -0.09071560204029083, -0.22502899169921875, -0.2032710611820221, -0.05925639346241951, -0.18576787412166595, -0.1682291477918625, -0.29575085639953613, -0.20279264450073242, 0.21589529514312744, -0.28755971789360046, -0.16222704946994781, -0.0027386206202208996, -0.2674744129180908, 0.09249411523342133, -0.08479446917772293, -0.18872670829296112, 0.15024660527706146, -0.24515266716480255, -0.30717578530311584, 0.08227233588695526, -0.00810196716338396, 0.055676911026239395, -0.025464793667197227, 0.05482185631990433, -0.056905362755060196, -0.17513242363929749, 0.043824452906847, -0.0706552192568779, -0.20473618805408478], [-0.3881799876689911, -0.023583656176924706, 0.019234133884310722, -0.33281704783439636, -0.20449288189411163, -0.0828172042965889, -0.5373769998550415, -0.4371348023414612, -0.24939502775669098, -0.16424334049224854, -0.011594507843255997, -0.1427958756685257, 0.19288428127765656, 0.2611268162727356, -0.22965829074382782, -0.586708664894104, -0.11952894926071167, -0.6478157639503479, -0.17146354913711548, -0.11418455094099045, -0.05082973465323448, -0.14686211943626404, -0.053618721663951874, -0.5052966475486755, -0.423056423664093, -0.49038931727409363, -0.5346779227256775, -0.321491539478302, 0.12066017836332321, -0.0053191110491752625, -0.47287288308143616, -0.19989891350269318], [0.00527455098927021, 0.051297955214977264, 0.006041854619979858, 0.1439734399318695, 0.12666378915309906, -0.050545208156108856, 0.044309262186288834, -0.12802280485630035, -0.10197412967681885, -0.18557558953762054, 0.08630244433879852, 0.09164799004793167, -0.05858876556158066, -0.16952483355998993, -0.16214437782764435, 0.21915996074676514, -0.26273417472839355, -0.21834248304367065, -0.13553190231323242, 0.1608532816171646, 0.12320136278867722, -0.11046049743890762, -0.06823522597551346, -0.2441350668668747, -0.11866583675146103, -0.1150384247303009, -0.2608574628829956, -0.22123919427394867, 0.025950660929083824, 0.017575548961758614, 0.10447119176387787, -0.19771656394004822], [-0.22006431221961975, -0.014493183232843876, -0.15969674289226532, -0.18662166595458984, -0.06727650761604309, -0.11724351346492767, 0.2893832325935364, 0.048348646610975266, 0.17858727276325226, 0.15638063848018646, 0.15949180722236633, -0.029971005395054817, -0.0875418484210968, -0.13232193887233734, -0.02175436168909073, -0.011840075254440308, -0.1326434314250946, 0.07048196345567703, -0.10605588555335999, -0.12139599025249481, -0.17869973182678223, -0.03754100948572159, -0.0558011457324028, 0.17350828647613525, 0.05164763331413269, -0.19307217001914978, -0.09561412781476974, -0.006487932987511158, -0.2469729334115982, -0.06419335305690765, -0.0972132682800293, -0.11219490319490433], [0.05042586848139763, 0.06719880551099777, -0.08435627818107605, 0.11590060591697693, 0.06184295937418938, -0.04947594180703163, -0.009556510485708714, -0.14302918314933777, -0.08675005286931992, -0.04914253577589989, -0.14395955204963684, -0.02913823164999485, -0.20573535561561584, 0.07093517482280731, -0.15169939398765564, -0.460372656583786, -0.05496903136372566, 0.01982240006327629, -0.049434006214141846, -0.014963049441576004, 0.20255973935127258, -0.010164852254092693, -0.03272256255149841, -0.08265366405248642, -0.19789879024028778, 0.11744363605976105, -0.07840598374605179, -0.24908758699893951, -0.0394495390355587, 0.03421736881136894, -0.05924934893846512, 0.0048331464640796185], [0.044907309114933014, 0.11034112423658371, 0.016407297924160957, -0.0077731069177389145, -0.07967858761548996, 0.0653466135263443, 0.028712531551718712, -0.10821352899074554, -0.1486891508102417, 0.04625152051448822, -0.12849846482276917, -0.11019778251647949, 0.06864595413208008, -0.17005133628845215, 0.08349058032035828, -0.08371904492378235, -0.029821505770087242, 0.04898542910814285, -0.1386287957429886, -0.0026967450976371765, -0.037501011043787, 0.08129516243934631, 0.15213659405708313, -0.11642325669527054, 0.13872697949409485, -0.10291814804077148, -0.0826294869184494, -0.09745460748672485, -0.01646575517952442, 0.003966011572629213, -0.03455911949276924, -0.01977791264653206], [-0.1462233066558838, -0.1700388342142105, -0.0666888877749443, 0.2250491976737976, -0.03779035434126854, -0.03127080202102661, -0.05976060777902603, -0.24893438816070557, -0.10063213109970093, -0.11639655381441116, -0.30100324749946594, -0.12367789447307587, 0.3043273389339447, 0.1651301085948944, 0.1172066479921341, -0.1620941311120987, -0.582612156867981, 0.022618278861045837, -0.17210017144680023, 0.16183607280254364, 0.07408488541841507, -0.13239902257919312, 0.05925840511918068, -0.10046926140785217, -0.10535126179456711, -0.49782794713974, 0.06861746311187744, 0.0344795361161232, -0.04658222571015358, 0.10515917837619781, -0.1485896110534668, -0.19271676242351532], [-0.03563220053911209, 0.025685783475637436, -0.019033942371606827, -0.059603363275527954, -0.2030879557132721, -0.0948629155755043, -0.00904825422912836, 0.02256505750119686, -0.10035686939954758, -0.16659750044345856, -0.06612218171358109, -0.14301832020282745, -0.001344330026768148, -0.033617764711380005, -0.11732398718595505, -0.03227386251091957, -0.1644323617219925, 0.045046694576740265, -0.020279211923480034, 0.06728824228048325, 0.031335022300481796, -0.13540104031562805, 0.04737349599599838, -0.01174977608025074, 0.06949533522129059, -0.00021520334121305496, -0.12932628393173218, 0.022061282768845558, -0.031402017921209335, -0.03579069674015045, -0.03520425781607628, -0.0019030201947316527], [0.1358756721019745, 0.004848035518079996, -0.2714492082595825, -0.3131891191005707, 0.18784815073013306, -0.14013685286045074, 0.20626865327358246, 0.01100693829357624, 0.05515124276280403, -0.16531218588352203, -0.36722078919410706, -0.06217912212014198, 0.018051322549581528, 0.12486795336008072, -0.3764907121658325, -0.03696344792842865, 0.1488400399684906, -0.13232094049453735, -0.06594928354024887, -0.2598924934864044, -0.033009275794029236, 0.1400543451309204, -0.32784971594810486, -0.29136836528778076, 0.034710224717855453, 0.16196146607398987, -0.08037487417459488, 0.015564318746328354, -0.041498422622680664, -0.02732273004949093, -0.38053518533706665, -0.26005324721336365], [0.06814021617174149, 0.05037955194711685, -0.5089753270149231, -0.11215335130691528, -0.5182347893714905, -0.45511382818222046, -0.19628360867500305, -0.6362690925598145, -0.4598369002342224, -0.3774205148220062, -0.44392144680023193, 0.16532889008522034, -0.051555149257183075, -0.49835944175720215, -0.26958462595939636, -0.5354801416397095, 0.03709247335791588, -0.4046485424041748, -0.307355135679245, -0.049452025443315506, -0.5766676068305969, -0.5641466975212097, -0.14603213965892792, -0.34157952666282654, -0.181988924741745, -0.421848863363266, -0.1479940414428711, -0.27992191910743713, -0.4389691650867462, 0.23100481927394867, -0.259206086397171, -0.17430399358272552], [-0.0017895596101880074, 0.0009923429461196065, -0.2303810864686966, -0.14761368930339813, -0.12067984789609909, -0.04187725484371185, 0.03180697187781334, 0.011724443174898624, -0.14650246500968933, -0.14093844592571259, -0.05870075896382332, 0.00451215635985136, -0.09027621895074844, -0.017110276967287064, 0.41314712166786194, -0.2384488731622696, -0.16706568002700806, -0.10535657405853271, 0.004359161015599966, -0.0924418643116951, -0.3335230052471161, -0.055541977286338806, 0.09080839157104492, -0.2021612972021103, 0.16363555192947388, -0.09764935821294785, -0.03991880267858505, -0.047333575785160065, -0.2492128610610962, -0.06283719092607498, -0.038737617433071136, -0.20047692954540253], [-0.14461655914783478, -0.17324146628379822, -0.17092803120613098, -0.2272622287273407, -0.43715694546699524, -0.13367104530334473, -0.33952346444129944, 0.18943512439727783, -0.32101255655288696, -0.13113905489444733, -0.03919355571269989, 0.016618769615888596, -0.35578057169914246, -0.002254729624837637, -0.2126777470111847, 0.13143016397953033, 0.03349209949374199, 0.024974793195724487, 0.0067015960812568665, 0.1621207594871521, 0.0570613257586956, 0.13330858945846558, -0.029614316299557686, 0.13234877586364746, -0.0451539047062397, -0.343576580286026, -0.1703929454088211, 0.02839144505560398, -0.5413724184036255, -0.035871073603630066, 0.18012526631355286, -0.2585749328136444], [0.1688704788684845, -0.18039573729038239, -0.2587086260318756, 0.16763438284397125, 0.09490711241960526, 0.21983829140663147, -0.005348273552954197, -0.25864219665527344, 0.11621323972940445, -0.16417346894741058, 0.05669599771499634, -0.29774707555770874, -0.049556467682123184, 0.106624536216259, 0.1122666746377945, -0.19540266692638397, -0.3776088058948517, 0.11820327490568161, -0.22402051091194153, -0.11940733343362808, -0.14450587332248688, -0.46758130192756653, -0.08376132696866989, -0.25711628794670105, -0.030283547937870026, -0.3645983934402466, -0.2614951431751251, 0.17402859032154083, -0.05274612829089165, -0.17881013453006744, -0.27228155732154846, -0.11965955793857574], [-0.16842852532863617, -0.08796341717243195, -0.2964726984500885, -0.22951151430606842, -0.42157140374183655, -0.06351465731859207, -0.08807674050331116, -0.07818403840065002, -0.17713193595409393, -0.08270545303821564, 0.017695097252726555, 0.14316214621067047, -0.29541635513305664, -0.3766134977340698, 0.25012725591659546, -0.22336286306381226, 0.06826386600732803, 0.01235066819936037, -0.19305941462516785, 0.12987969815731049, 0.028534702956676483, -0.2517164945602417, -0.5263336300849915, -0.09066560119390488, -0.1815604418516159, -0.1823139488697052, -0.4517871141433716, -0.1316232532262802, -0.19661174714565277, 0.04730549827218056, -0.2698623836040497, -0.16570132970809937], [-0.14311131834983826, 0.08072152733802795, 0.05510963499546051, 0.09629920870065689, -0.0023564619477838278, 0.06089266017079353, 0.022708039730787277, -0.02794993296265602, 0.1058444157242775, 0.040135759860277176, -0.10845787823200226, -0.11740050464868546, 0.06577552109956741, -0.09733619540929794, 0.1585754007101059, -0.0023647253401577473, -0.20236265659332275, -0.08851061761379242, 0.1056295707821846, -0.15851452946662903, -0.004247664008289576, 0.11903409659862518, 0.08637955039739609, -0.13459563255310059, -0.07376941293478012, 0.1515539139509201, -0.0059042139910161495, -0.07237214595079422, 0.037895359098911285, -0.042967379093170166, 0.014933287166059017, 0.00271275220438838], [0.023497141897678375, -0.17855894565582275, -0.41843441128730774, -0.17654196918010712, -0.08981742709875107, 0.07213348895311356, -0.4779491126537323, -0.07865427434444427, -0.08876106142997742, -0.3030124008655548, 0.06782693415880203, 0.023902595043182373, -0.07262824475765228, -0.16735121607780457, -0.18656635284423828, 0.14595691859722137, 0.07003353536128998, 0.04381054639816284, -0.10849359631538391, 0.10022523999214172, -0.14633995294570923, 0.14588671922683716, 0.14374643564224243, 0.11053621023893356, 0.03265291079878807, -0.16695348918437958, -0.18883727490901947, -0.04129843786358833, -0.306240439414978, -0.09269597381353378, 0.05836136266589165, -0.08205674588680267], [-0.0403728112578392, -0.1310863345861435, -0.08810629695653915, -0.15537779033184052, -0.11590157449245453, -0.012203643098473549, -0.08046850562095642, -0.042237039655447006, -0.13596943020820618, -0.12835606932640076, -0.051717985421419144, -0.12372370064258575, -0.06466828286647797, 0.030894801020622253, -0.03616234287619591, -0.011001705192029476, 0.08537013083696365, 0.11600048840045929, 0.10271141678094864, -0.1179412379860878, 0.061335716396570206, -0.028357606381177902, -0.11054959893226624, -0.22509214282035828, 0.11714290082454681, -0.1343269646167755, 0.12111537158489227, 0.06956841051578522, -0.010997699573636055, -0.09160953015089035, -0.08187103271484375, -0.13845768570899963], [-0.14995723962783813, -0.20646879076957703, -0.02669733762741089, -0.40662047266960144, -0.12285345792770386, -0.22770611941814423, -0.2912125885486603, -0.39996060729026794, -0.38798877596855164, -0.08112280070781708, -0.08850422501564026, -0.07822377979755402, 0.3049008846282959, 0.03394675999879837, 0.316961407661438, -0.20209231972694397, -0.1842118501663208, -0.03869445621967316, -0.05818644538521767, -0.15212832391262054, -0.16809546947479248, -0.1355714499950409, 0.01258145272731781, -0.33073651790618896, -0.03382935747504234, -0.18646787106990814, 0.02225795015692711, -0.17397405207157135, 0.1426769196987152, 0.16532066464424133, 0.33655378222465515, -0.13994379341602325], [0.11564186215400696, 0.23242636024951935, 0.06781910359859467, -0.15432511270046234, -0.11586564034223557, -0.0556139200925827, 0.015140749514102936, 0.11862871795892715, -0.17131872475147247, 0.0433540865778923, -0.20777328312397003, -0.1443445384502411, -0.04104897752404213, -0.04604780673980713, -0.2188938856124878, -0.09887170791625977, -0.3598310649394989, 0.055299729108810425, -0.12420730292797089, -0.11459753662347794, -0.10705165565013885, 0.11635863035917282, -0.11421699076890945, -0.2657586634159088, -0.16283226013183594, -0.00040972130955196917, -0.06006931513547897, -0.15714170038700104, -0.24052870273590088, -0.1763567328453064, -0.22756175696849823, -0.06138189882040024], [-0.23643586039543152, -0.0702265202999115, 0.05391852930188179, -0.1519772857427597, -0.09320364147424698, 0.16078761219978333, -0.05313148722052574, 0.10489772260189056, -0.13695530593395233, 0.145221546292305, 0.0910702645778656, 0.10014527291059494, 0.05991508811712265, 0.07483810931444168, -0.057065535336732864, -0.1820552498102188, -0.1579131782054901, -0.06804864853620529, 0.2139870673418045, 0.1572183519601822, 0.1563948690891266, -0.06716126203536987, -0.16996857523918152, -0.013870262540876865, -0.056680478155612946, -0.005740888882428408, -0.23302938044071198, 0.08008413761854172, -0.17360733449459076, 0.07396848499774933, -0.2433030754327774, -0.04472104087471962], [-0.18756867945194244, -0.12538759410381317, -0.11925284564495087, 0.010480083525180817, -0.48927876353263855, -0.10619039833545685, -0.0014242524048313498, -0.24092011153697968, -0.4817253053188324, -0.2712031900882721, -0.020022990182042122, 0.07298632711172104, -0.1247037723660469, -0.18185992538928986, 0.20874646306037903, -0.18656611442565918, -0.3920432925224304, -0.2456275224685669, -0.14446492493152618, -0.3655955195426941, -0.33608055114746094, -0.43196430802345276, -0.08646968752145767, 0.16432256996631622, -0.22354981303215027, -0.15411707758903503, -0.11652658879756927, -0.34807291626930237, -0.11290256679058075, -0.2978835105895996, -0.12143465131521225, -0.19317638874053955], [0.15440665185451508, 0.16916491091251373, -0.20864979922771454, -0.2738187909126282, -0.008477031253278255, -0.23111188411712646, 0.10387629270553589, -0.04273693636059761, -0.1923227310180664, -0.2570895850658417, -0.3400154411792755, 0.16947786509990692, 0.03621310368180275, 0.020762234926223755, -0.07192093133926392, 0.1539977490901947, -0.09374383091926575, -0.1353304535150528, -0.0011267727240920067, -0.3682909905910492, -0.15147246420383453, -0.06437011808156967, 0.2738737463951111, -0.3497675955295563, 0.2584104835987091, 0.22839592397212982, 0.0003911471867468208, -0.11812903732061386, -0.12715253233909607, -0.11810638755559921, -0.11272770166397095, -0.09318394958972931], [0.19877947866916656, -0.25392022728919983, -0.11548402160406113, -0.0168576929718256, -0.5711255073547363, -0.06174025684595108, -0.006525083910673857, -0.2961408495903015, -0.24671868979930878, 0.05839245766401291, -0.26796817779541016, -0.07626783102750778, 0.23007875680923462, 0.16139547526836395, -0.11065482348203659, -0.5835140943527222, -0.2752516567707062, -0.24146631360054016, -0.11851651221513748, -0.2580430507659912, -0.3431576192378998, -0.17614831030368805, -0.03058995120227337, -0.14890432357788086, -0.28678327798843384, 0.09010549634695053, -0.048073988407850266, 0.0574953518807888, -0.2951466739177704, -0.2647334337234497, -0.2643645405769348, -0.26244744658470154], [0.07685139030218124, 0.05797763541340828, -0.013341772370040417, 0.03977837786078453, 0.002417978597804904, -0.08009757846593857, -0.036738697439432144, -0.04312726482748985, -0.047400832176208496, -0.3194969594478607, 0.3089314103126526, 0.09285635501146317, 0.07930421084165573, -0.10538160055875778, 0.09446857124567032, -0.04244264215230942, -0.06213749200105667, -0.017803756520152092, -0.1528681367635727, 0.018721554428339005, -0.08682870864868164, -0.06503749638795853, -0.06109209358692169, -0.16340771317481995, -0.10432872921228409, -0.03309517353773117, 0.07914279401302338, -0.1474662870168686, -0.16715051233768463, -0.03297114744782448, -0.18306539952754974, -0.07344377785921097], [-0.006119174882769585, -0.07626949995756149, -0.004940541461110115, -0.1900186985731125, -0.008598625659942627, -0.1633424311876297, 0.032096900045871735, -0.04180372878909111, -0.05943412706255913, -0.21566720306873322, -0.0988922268152237, -0.04677962511777878, 0.12494519352912903, -0.17009711265563965, 0.23185130953788757, -0.13703130185604095, -0.14633101224899292, -0.37149378657341003, 0.031577419489622116, -0.08951203525066376, 0.36844637989997864, -0.13920404016971588, -0.01838647946715355, -0.19438299536705017, -0.07650730013847351, -0.2472214251756668, -0.170803502202034, -0.2017981857061386, 0.17190290987491608, 0.31207647919654846, -0.0693899616599083, -0.10062111914157867], [-0.045594315975904465, -0.07108178734779358, -0.217655748128891, -0.2193409502506256, 0.011503624729812145, 0.024046815931797028, 0.15382713079452515, -0.11291133612394333, -0.06996460258960724, 0.11434247344732285, -0.12742038071155548, -0.2772066593170166, -0.12565310299396515, -0.25880730152130127, 0.06773708760738373, 0.012112204916775227, -0.04849045351147652, 0.06584224104881287, -0.006078934296965599, -0.08131003379821777, -0.19591492414474487, -0.01768682524561882, -0.15988679230213165, 0.008978676982223988, 0.08853591233491898, -0.11404925584793091, -0.09390276670455933, -0.11484141647815704, 0.12952817976474762, 0.07679472118616104, -0.03617538884282112, -0.07580316811800003], [-0.0802750214934349, 0.06626289337873459, 0.2253076732158661, -0.050432268530130386, 0.06271577626466751, -0.167914479970932, -0.14126765727996826, 0.05926930904388428, 0.1886533498764038, 0.20340637862682343, -0.07619725912809372, 0.00047128452570177615, -0.12819792330265045, -0.04690955951809883, -0.11196618527173996, -0.1948612928390503, -0.22794298827648163, 0.14299070835113525, -0.20038607716560364, -0.1297938972711563, 0.043748896569013596, 0.17843182384967804, -0.043389175087213516, -0.0006694956100545824, -0.38319194316864014, -0.11115781962871552, -0.07681674510240555, -0.16003650426864624, -0.3908594846725464, -0.2367565929889679, -0.22466497123241425, -0.04438450187444687], [-0.09387695044279099, 0.10048604011535645, 0.3262679874897003, -0.11116108298301697, -0.1320422887802124, -0.10653651505708694, -0.04635154455900192, -0.09055346250534058, -0.0187605582177639, 0.038879044353961945, -0.2641659080982208, 0.2270921915769577, -0.2822762429714203, -0.22556111216545105, -0.0543709397315979, -0.3475036919116974, -0.09176919609308243, -0.009580307640135288, -0.07935113459825516, 0.21295671164989471, -0.4456668496131897, 0.061406251043081284, 0.040219955146312714, 0.026975147426128387, -0.03205719217658043, 0.06926704943180084, -0.1796191930770874, -0.3065810799598694, -0.11284444481134415, 0.14942015707492828, -0.04006260260939598, -0.06954299658536911], [0.08402075618505478, 0.014855558052659035, -0.0285031758248806, -0.44807159900665283, -0.15361256897449493, -0.3198941648006439, -0.20494720339775085, -0.38167476654052734, -0.2904970049858093, -0.1357748806476593, 0.1676080971956253, 0.05186641961336136, -0.38713380694389343, -0.2395516335964203, 0.01357703935354948, -0.06427323818206787, 0.18389040231704712, -0.05295666307210922, -0.20179274678230286, 0.012005548924207687, 0.10622670501470566, -0.14899475872516632, -0.21508441865444183, -0.20679382979869843, -0.4307522177696228, -0.11699109524488449, -0.204146608710289, -0.2680922746658325, 0.13166001439094543, 0.12662777304649353, -0.2124219685792923, -0.017263537272810936], [-0.28053832054138184, -0.196158304810524, 0.19214747846126556, -0.10188637673854828, 0.25628232955932617, -0.1140969917178154, 0.00449997466057539, -0.21589124202728271, -0.11434898525476456, -0.31811848282814026, 0.1505916863679886, -0.04238205775618553, 0.15971051156520844, 0.15268872678279877, -0.041745103895664215, 0.18771427869796753, -0.03997953236103058, -0.4732549786567688, -0.12319859117269516, -0.23417328298091888, 0.07315988838672638, -0.12371353060007095, -0.0964469313621521, -0.24725274741649628, -0.2398088276386261, -0.34113243222236633, -0.08054694533348083, -0.29378360509872437, -0.08303320407867432, -0.17291559278964996, -0.012459511868655682, -0.005538165103644133], [0.10618796199560165, 0.17855174839496613, 0.07060360163450241, -0.20826488733291626, -0.2466917335987091, -0.4361600875854492, 0.1702418178319931, -0.06996773183345795, 0.05315164476633072, -0.29823189973831177, 0.15719428658485413, -0.0022016840521246195, 0.02317816950380802, -0.18514995276927948, -0.40689975023269653, 0.12023056298494339, -0.1871490478515625, -0.36697515845298767, -0.1492476612329483, -0.16603903472423553, 0.1921917051076889, -0.14586269855499268, -0.27503764629364014, -0.2402033656835556, -0.21786613762378693, 0.2736061215400696, -0.08440340310335159, -0.10351678729057312, -0.2102544605731964, 0.1380508989095688, -0.577743649482727, -0.01607060618698597], [0.07449257373809814, 0.1418570578098297, -0.03162606433033943, 0.09187749028205872, -0.01589309610426426, -0.11948388069868088, -0.10161537677049637, -0.2787579596042633, -0.20990435779094696, -0.26073285937309265, -0.33725935220718384, 0.1842292994260788, -0.37196317315101624, -0.016835937276482582, 0.12803225219249725, -0.07307427376508713, 0.12273981422185898, -0.2105136513710022, -0.18264393508434296, -0.20864738523960114, -0.3139837980270386, -0.10181990265846252, -0.0628914162516594, -0.22173519432544708, -0.1240256130695343, 0.11153656989336014, -0.033431459218263626, -0.0321609191596508, -0.18702368438243866, -0.14354482293128967, -0.1421332210302353, -0.1446891576051712], [-0.027557972818613052, -0.035429295152425766, -0.0398736372590065, 0.10179884731769562, -0.08525741100311279, 0.021590320393443108, 0.1623847335577011, 0.011776426807045937, 0.027683114632964134, 0.006926524918526411, 0.2657269239425659, -0.08859764784574509, -0.045588187873363495, 0.1050797626376152, -0.023902323096990585, 0.07649201154708862, -0.06372803449630737, -0.019675595685839653, -0.06949824839830399, -0.1263239085674286, -0.1672893464565277, 0.06469493359327316, -0.2263256162405014, -0.10778395086526871, 0.03404639661312103, -0.07522781938314438, -0.15806622803211212, 0.06914226710796356, 0.1398022472858429, 0.018445109948515892, -0.09432139992713928, -0.07737129181623459], [0.19710737466812134, 0.1713576316833496, -0.2070849984884262, -0.07703835517168045, -0.013457175344228745, -0.11768815666437149, 0.07779823243618011, 0.04391464591026306, -0.04890407621860504, -0.281250536441803, -0.3562544584274292, -0.1167333722114563, 0.24846912920475006, -0.0424358993768692, 0.05888170748949051, -0.01998174376785755, -0.33641642332077026, 0.1108393669128418, -0.16622017323970795, -0.16193152964115143, -0.13659213483333588, -0.14099843800067902, -0.02712520956993103, -0.10331585258245468, 0.25658395886421204, -0.12124542891979218, -0.1445569097995758, -0.08583716303110123, 0.20814956724643707, -0.3600769639015198, 0.1577606499195099, -0.08106432110071182], [-0.03677147999405861, -0.06777571886777878, 0.16631370782852173, 0.22439773380756378, 0.012649443931877613, -0.040836628526449203, -0.024330392479896545, -0.15082508325576782, -0.17770838737487793, -0.1032872200012207, -0.057100389152765274, 0.0025611412711441517, -0.15651831030845642, -0.062176719307899475, -0.1815812885761261, 0.029110616073012352, 0.16068270802497864, 0.14609894156455994, -0.10311634838581085, -0.2798760235309601, -0.06601405143737793, -0.07283910363912582, -0.053914256393909454, -0.2568935751914978, 0.1386502981185913, -0.43436485528945923, -0.10655176639556885, -0.13162392377853394, -0.03506320342421532, -0.19569872319698334, -0.054971229285001755, -0.07750757038593292], [0.07424178719520569, 0.20139916241168976, -0.021261045709252357, -0.2755841910839081, -0.3251192569732666, -0.2865891754627228, -0.24554504454135895, -0.34047824144363403, -0.0909513309597969, -0.3583623170852661, -0.5424368381500244, 0.22936464846134186, -0.85868239402771, -0.6062029600143433, -0.14713937044143677, -0.43791189789772034, -0.0057828351855278015, -0.12996532022953033, -0.2950766086578369, -0.06496936082839966, -0.4337902367115021, -0.5048791170120239, -0.5579038858413696, -0.2798737585544586, -0.7035841345787048, -0.2643241584300995, -0.3031711280345917, -0.6320042610168457, -0.5677508115768433, 0.04721695929765701, -0.4293642044067383, -0.3769693970680237]]